{"learner":{"attributes":{"scikit_learn":"{\"_estimator_type\": \"classifier\"}"},"feature_names":["__THROUGHPUT_PROXY_Mbps_mean5m","__THROUGHPUT_PROXY_Mbps_std5m","__THROUGHPUT_PROXY_Mbps_d1","__THROUGHPUT_PROXY_Mbps_slope5","in_maneuver"],"feature_types":["float","float","float","float","int"],"gradient_booster":{"model":{"cats":{"enc":[],"feature_segments":[],"sorted_idx":[]},"gbtree_model_param":{"num_parallel_tree":"1","num_trees":"400"},"iteration_indptr":[0,1,2,3,4,5,6,7,8,9,10,11,12,13,14,15,16,17,18,19,20,21,22,23,24,25,26,27,28,29,30,31,32,33,34,35,36,37,38,39,40,41,42,43,44,45,46,47,48,49,50,51,52,53,54,55,56,57,58,59,60,61,62,63,64,65,66,67,68,69,70,71,72,73,74,75,76,77,78,79,80,81,82,83,84,85,86,87,88,89,90,91,92,93,94,95,96,97,98,99,100,101,102,103,104,105,106,107,108,109,110,111,112,113,114,115,116,117,118,119,120,121,122,123,124,125,126,127,128,129,130,131,132,133,134,135,136,137,138,139,140,141,142,143,144,145,146,147,148,149,150,151,152,153,154,155,156,157,158,159,160,161,162,163,164,165,166,167,168,169,170,171,172,173,174,175,176,177,178,179,180,181,182,183,184,185,186,187,188,189,190,191,192,193,194,195,196,197,198,199,200,201,202,203,204,205,206,207,208,209,210,211,212,213,214,215,216,217,218,219,220,221,222,223,224,225,226,227,228,229,230,231,232,233,234,235,236,237,238,239,240,241,242,243,244,245,246,247,248,249,250,251,252,253,254,255,256,257,258,259,260,261,262,263,264,265,266,267,268,269,270,271,272,273,274,275,276,277,278,279,280,281,282,283,284,285,286,287,288,289,290,291,292,293,294,295,296,297,298,299,300,301,302,303,304,305,306,307,308,309,310,311,312,313,314,315,316,317,318,319,320,321,322,323,324,325,326,327,328,329,330,331,332,333,334,335,336,337,338,339,340,341,342,343,344,345,346,347,348,349,350,351,352,353,354,355,356,357,358,359,360,361,362,363,364,365,366,367,368,369,370,371,372,373,374,375,376,377,378,379,380,381,382,383,384,385,386,387,388,389,390,391,392,393,394,395,396,397,398,399,400],"tree_info":[0,0,0,0,0,0,0,0,0,0,0,0,0,0,0,0,0,0,0,0,0,0,0,0,0,0,0,0,0,0,0,0,0,0,0,0,0,0,0,0,0,0,0,0,0,0,0,0,0,0,0,0,0,0,0,0,0,0,0,0,0,0,0,0,0,0,0,0,0,0,0,0,0,0,0,0,0,0,0,0,0,0,0,0,0,0,0,0,0,0,0,0,0,0,0,0,0,0,0,0,0,0,0,0,0,0,0,0,0,0,0,0,0,0,0,0,0,0,0,0,0,0,0,0,0,0,0,0,0,0,0,0,0,0,0,0,0,0,0,0,0,0,0,0,0,0,0,0,0,0,0,0,0,0,0,0,0,0,0,0,0,0,0,0,0,0,0,0,0,0,0,0,0,0,0,0,0,0,0,0,0,0,0,0,0,0,0,0,0,0,0,0,0,0,0,0,0,0,0,0,0,0,0,0,0,0,0,0,0,0,0,0,0,0,0,0,0,0,0,0,0,0,0,0,0,0,0,0,0,0,0,0,0,0,0,0,0,0,0,0,0,0,0,0,0,0,0,0,0,0,0,0,0,0,0,0,0,0,0,0,0,0,0,0,0,0,0,0,0,0,0,0,0,0,0,0,0,0,0,0,0,0,0,0,0,0,0,0,0,0,0,0,0,0,0,0,0,0,0,0,0,0,0,0,0,0,0,0,0,0,0,0,0,0,0,0,0,0,0,0,0,0,0,0,0,0,0,0,0,0,0,0,0,0,0,0,0,0,0,0,0,0,0,0,0,0,0,0,0,0,0,0,0,0,0,0,0,0,0,0,0,0,0,0,0,0,0,0,0,0,0,0,0,0,0,0,0,0,0,0,0,0,0,0,0,0,0,0,0,0,0,0,0,0,0,0,0,0,0,0],"trees":[{"base_weights":[5.5999856E-4,1.7273941E0,-1.0463471E0,1.9222863E0,1.0748949E0,-1.175671E0,1.426209E0,1.9750814E0,1.7363837E0,1.2873983E0,6.131493E-1,-5.078325E-1,-1.4197699E0,1.0007243E0,1.651469E0,9.9426016E-2,1.9110647E0,1.8781445E0,1.518694E0,1.5819833E0,1.0739048E0,-1.4125149E0,7.16394E-1,-1.0832114E0,-2.4316725E-1,-1.4940513E0,-9.145831E-1,-1.509135E-1,1.1331468E0,1.6614172E0,-8.7878786E-2,9.7542666E-2,8.910697E-2,9.513141E-2,9.0701334E-2,7.2036624E-2,8.6724296E-2,7.9797976E-2,-2.2967847E-2,4.8065703E-2,8.3794124E-2,-4.1923266E-2,-9.8860405E-2,2.886781E-2,8.609554E-2,-1.7143844E-2,-6.0291793E-2,1.1699426E-2,-2.0976378E-2,-4.138495E-2,-7.6720506E-2,-1.7871785E-3,-6.0413327E-2,1.9237548E-2,-9.7058825E-2,5.7931878E-2,-9.1111116E-2,5.805483E-2,8.620335E-2],"categories":[],"categories_nodes":[],"categories_segments":[],"categories_sizes":[],"default_left":[0,0,0,0,0,0,0,0,0,0,0,0,0,0,0,0,0,0,0,0,0,0,0,0,0,0,0,0,0,0,0,0,0,0,0,0,0,0,0,0,0,0,0,0,0,0,0,0,0,0,0,0,0,0,0,0,0,0,0],"id":0,"left_children":[1,3,5,7,9,11,13,15,17,19,21,23,25,27,29,-1,31,33,35,37,39,41,43,45,47,49,51,53,55,57,-1,-1,-1,-1,-1,-1,-1,-1,-1,-1,-1,-1,-1,-1,-1,-1,-1,-1,-1,-1,-1,-1,-1,-1,-1,-1,-1,-1,-1],"loss_changes":[2.3853561E5,6.330922E3,2.6268281E4,3.7295312E2,1.1233027E3,1.2724875E4,3.897168E2,2.1890625E1,2.591328E2,4.9165723E2,7.565276E2,3.1819185E3,2.143875E3,2.161189E2,9.341406E1,0E0,2.3228516E1,4.6152344E0,5.3916992E1,9.471582E1,3.0686768E2,5.524243E1,4.7965112E2,5.9724854E2,1.2046517E3,1.339E3,1.892021E3,1.416348E2,9.779443E1,8.140967E1,0E0,0E0,0E0,0E0,0E0,0E0,0E0,0E0,0E0,0E0,0E0,0E0,0E0,0E0,0E0,0E0,0E0,0E0,0E0,0E0,0E0,0E0,0E0,0E0,0E0,0E0,0E0,0E0,0E0],"parents":[2147483647,0,0,1,1,2,2,3,3,4,4,5,5,6,6,7,7,8,8,9,9,10,10,11,11,12,12,13,13,14,14,16,16,17,17,18,18,19,19,20,20,21,21,22,22,23,23,24,24,25,25,26,26,27,27,28,28,29,29],"right_children":[2,4,6,8,10,12,14,16,18,20,22,24,26,28,30,-1,32,34,36,38,40,42,44,46,48,50,52,54,56,58,-1,-1,-1,-1,-1,-1,-1,-1,-1,-1,-1,-1,-1,-1,-1,-1,-1,-1,-1,-1,-1,-1,-1,-1,-1,-1,-1,-1,-1],"split_conditions":[-9.451406E-1,-1.4114286E0,1.9346485E0,-2.0728428E0,-1.0975434E0,-3.0432767E-1,2.3932314E0,-2.7808962E0,2.8034128E-2,-3.9428657E-1,-9.164442E-1,-3.456422E-1,8.7437457E-1,-1.8097141E0,1.8134272E1,9.9426016E-2,7.656827E-1,-1.5331744E0,2.1162417E0,2.0806174E0,1.9346485E0,-5.147526E-2,1.9346485E0,-8.1909645E-1,-5.2201545E-1,-7.2220607E0,7.021237E-2,4.72833E-1,1.7445938E1,-1.1726736E0,-8.7878786E-2,9.7542666E-2,8.910697E-2,9.513141E-2,9.0701334E-2,7.2036624E-2,8.6724296E-2,7.9797976E-2,-2.2967847E-2,4.8065703E-2,8.3794124E-2,-4.1923266E-2,-9.8860405E-2,2.886781E-2,8.609554E-2,-1.7143844E-2,-6.0291793E-2,1.1699426E-2,-2.0976378E-2,-4.138495E-2,-7.6720506E-2,-1.7871785E-3,-6.0413327E-2,1.9237548E-2,-9.7058825E-2,5.7931878E-2,-9.1111116E-2,5.805483E-2,8.620335E-2],"split_indices":[0,0,1,0,0,0,1,0,1,1,1,1,1,2,2,0,1,0,1,2,1,2,1,0,2,2,0,0,2,2,0,0,0,0,0,0,0,0,0,0,0,0,0,0,0,0,0,0,0,0,0,0,0,0,0,0,0,0,0],"split_type":[0,0,0,0,0,0,0,0,0,0,0,0,0,0,0,0,0,0,0,0,0,0,0,0,0,0,0,0,0,0,0,0,0,0,0,0,0,0,0,0,0,0,0,0,0,0,0,0,0,0,0,0,0,0,0,0,0,0,0],"sum_hessian":[1.3194344E5,4.9799832E4,8.214361E4,3.834484E4,1.1454996E4,7.806124E4,4.082368E3,2.9856229E4,8.488609E3,7.8434946E3,3.6115012E3,2.0895531E4,5.716571E4,1.4150255E3,2.6673423E3,2.4651197E4,5.2050312E3,5.136233E3,3.3523765E3,3.2931265E3,4.550368E3,1.7453036E2,3.436971E3,6.5823955E3,1.4313136E4,4.983599E4,7.3297227E3,1.4591432E2,1.2691112E3,2.6600923E3,7.25E0,3.9667075E3,1.2383239E3,3.6961663E3,1.4400668E3,2.468301E3,8.8407544E2,3.2709497E3,2.217679E1,3.8355784E3,7.147896E2,8.778037E1,8.675E1,3.0208386E3,4.1613235E2,9.358823E2,5.646513E3,3.8625083E3,1.0450627E4,2.8472522E3,4.698874E4,1.8361665E3,5.493556E3,1.1291432E2,3.3E1,1.2588612E3,1.025E1,2.9820013E2,2.3618923E3],"tree_param":{"num_deleted":"0","num_feature":"5","num_nodes":"59","size_leaf_vector":"1"}},{"base_weights":[-4.067473E-3,-1.3722542E-1,1.5279435E0,1.290766E0,-1.6441627E-1,1.0541344E0,1.649954E0,5.600319E-1,1.6455624E0,1.3196711E-1,-2.8115284E-1,1.1158199E0,-9.5597655E-1,1.6851144E0,1.3278861E0,9.314238E-1,-3.092224E-1,1.8299776E0,1.3594775E0,3.8170025E-1,-7.427243E-2,-1.6159686E-1,-4.3801937E-1,1.2464453E0,7.6689255E-1,-9.784672E-2,6.817315E-1,1.4831445E0,1.7565049E0,6.9711995E-1,1.6678321E0,7.369018E-2,3.67447E-2,-2.2727246E-3,-6.22421E-2,7.5930975E-2,9.225874E-2,6.8662085E-2,-6.915041E-2,2.3412576E-2,8.534309E-3,-6.2450254E-3,8.204042E-3,2.1386815E-3,-1.2118107E-2,-2.7651211E-2,-2.0103684E-2,3.8816836E-2,6.8306305E-2,1.2531099E-2,5.2659966E-2,-8.003E-2,5.923697E-2,6.69342E-2,8.2533106E-2,4.1075688E-2,8.821078E-2,4.555201E-2,-2.5549492E-2,8.6943924E-2,7.942658E-2],"categories":[],"categories_nodes":[],"categories_segments":[],"categories_sizes":[],"default_left":[0,0,0,0,0,0,0,0,0,0,0,0,0,0,0,0,0,0,0,0,0,0,0,0,0,0,0,0,0,0,0,0,0,0,0,0,0,0,0,0,0,0,0,0,0,0,0,0,0,0,0,0,0,0,0,0,0,0,0,0,0],"id":1,"left_children":[1,3,5,7,9,11,13,15,17,19,21,23,25,27,29,31,33,35,37,39,41,43,45,47,49,-1,51,53,55,57,59,-1,-1,-1,-1,-1,-1,-1,-1,-1,-1,-1,-1,-1,-1,-1,-1,-1,-1,-1,-1,-1,-1,-1,-1,-1,-1,-1,-1,-1,-1],"loss_changes":[2.6842555E4,4.700744E3,6.0654297E2,5.85573E2,4.110309E3,2.6858105E2,9.249414E1,2.3947173E2,7.782568E1,1.7290385E3,1.5983486E3,9.4471924E1,1.07518005E2,1.0609375E2,1.7640698E2,5.4276337E1,5.48628E1,1.5639648E0,2.4569092E1,2.7723413E2,2.2190094E2,7.983782E2,1.5216309E2,8.456006E1,8.441733E1,0E0,3.095695E1,4.5588867E1,3.8664062E1,7.585895E1,2.6538086E-1,0E0,0E0,0E0,0E0,0E0,0E0,0E0,0E0,0E0,0E0,0E0,0E0,0E0,0E0,0E0,0E0,0E0,0E0,0E0,0E0,0E0,0E0,0E0,0E0,0E0,0E0,0E0,0E0,0E0,0E0],"parents":[2147483647,0,0,1,1,2,2,3,3,4,4,5,5,6,6,7,7,8,8,9,9,10,10,11,11,12,12,13,13,14,14,15,15,16,16,17,17,18,18,19,19,20,20,21,21,22,22,23,23,24,24,26,26,27,27,28,28,29,29,30,30],"right_children":[2,4,6,8,10,12,14,16,18,20,22,24,26,28,30,32,34,36,38,40,42,44,46,48,50,-1,52,54,56,58,60,-1,-1,-1,-1,-1,-1,-1,-1,-1,-1,-1,-1,-1,-1,-1,-1,-1,-1,-1,-1,-1,-1,-1,-1,-1,-1,-1,-1,-1,-1],"split_conditions":[1.811741E0,-6.2663E0,2.1162417E0,-1.4540898E1,-5.382614E-1,1.287635E1,2.6612601E0,7.656827E-1,-8.947239E0,-4.6514746E-2,4.2868633E-2,2.6184988E-1,5.0920377E0,-4.4863272E-1,2.8490016E0,4.991675E-2,-1.6719654E1,-1.2702406E1,3.9914663E0,-7.0874506E-1,7.019571E-1,-1.2869836E-1,-1.8106827E-1,-1.3210168E0,8.315933E-2,-9.784672E-2,1.9346485E0,2.8490016E0,-2.7008624E0,1.1167499E0,-4.5392647E-2,7.369018E-2,3.67447E-2,-2.2727246E-3,-6.22421E-2,7.5930975E-2,9.225874E-2,6.8662085E-2,-6.915041E-2,2.3412576E-2,8.534309E-3,-6.2450254E-3,8.204042E-3,2.1386815E-3,-1.2118107E-2,-2.7651211E-2,-2.0103684E-2,3.8816836E-2,6.8306305E-2,1.2531099E-2,5.2659966E-2,-8.003E-2,5.923697E-2,6.69342E-2,8.2533106E-2,4.1075688E-2,8.821078E-2,4.555201E-2,-2.5549492E-2,8.6943924E-2,7.942658E-2],"split_indices":[1,3,1,2,1,2,3,1,3,3,3,3,3,3,1,1,2,2,2,1,3,1,1,2,2,0,1,1,2,2,2,0,0,0,0,0,0,0,0,0,0,0,0,0,0,0,0,0,0,0,0,0,0,0,0,0,0,0,0,0,0],"split_type":[0,0,0,0,0,0,0,0,0,0,0,0,0,0,0,0,0,0,0,0,0,0,0,0,0,0,0,0,0,0,0,0,0,0,0,0,0,0,0,0,0,0,0,0,0,0,0,0,0,0,0,0,0,0,0,0,0,0,0,0,0],"sum_hessian":[1.315795E5,1.21058375E5,1.0521132E4,2.261172E3,1.187972E5,2.156465E3,8.364666E3,7.3988763E2,1.5212845E3,3.356885E4,8.522835E4,2.0926904E3,6.377485E1,7.5375522E3,8.271144E2,5.183495E2,2.2153812E2,9.217272E2,5.995574E2,1.5183034E4,1.8385816E4,4.8367242E4,3.686111E4,1.5207909E3,5.718995E2,3.9461365E1,2.4313482E1,1.9741873E3,5.5633647E3,2.9072607E2,5.363883E2,1.3613824E2,3.8221127E2,1.736357E2,4.7902428E1,4.7591976E1,8.741352E2,5.9706006E2,2.4973016E0,1.0765959E4,4.417074E3,1.5165106E4,3.2207095E3,1.370025E4,3.4666992E4,8.774272E3,2.8086836E4,3.1012006E2,1.2106708E3,2.0468506E2,3.6721442E2,3.996741E0,2.0316742E1,1.0648737E3,9.093136E2,4.638358E1,5.5169814E3,2.4720018E2,4.3525887E1,2.7188004E2,2.645083E2],"tree_param":{"num_deleted":"0","num_feature":"5","num_nodes":"61","size_leaf_vector":"1"}},{"base_weights":[4.291372E-3,1.6735426E0,-9.7390234E-1,1.8247669E0,1.1048422E0,-3.0552012E-1,-1.240706E0,1.8758149E0,1.6483852E0,1.3490328E0,6.8207604E-1,2.2908607E-1,-6.340174E-1,1.1893328E0,-1.3156456E0,1.8883346E0,1.8183564E0,1.6761183E0,9.543408E-1,1.4984426E0,9.8394895E-1,9.081575E-1,4.146769E-1,6.7932916E-1,6.466005E-2,-4.0230343E-1,-9.0626276E-1,1.7878509E-1,1.5482347E0,-1.0166782E0,-1.4109203E0,9.450331E-2,9.005639E-2,9.204038E-2,6.0306907E-2,8.637377E-2,7.7791154E-2,5.5742837E-2,1.0109993E-2,5.6323368E-2,7.752442E-2,5.4813545E-2,3.9375942E-2,4.7184773E-2,-9.783734E-2,2.262937E-2,-9.801383E-2,1.6692126E-3,4.252584E-2,5.16249E-2,1.239848E-3,-4.1383805E-4,-2.8610343E-2,-3.0395849E-2,-5.45564E-2,3.4087293E-2,-2.7413895E-2,8.815057E-2,4.5662835E-2,-2.0745305E-2,-5.8250453E-2,-6.528284E-2,-7.680687E-2],"categories":[],"categories_nodes":[],"categories_segments":[],"categories_sizes":[],"default_left":[0,0,0,0,0,0,0,0,0,0,0,0,0,0,0,0,0,0,0,0,0,0,0,0,0,0,0,0,0,0,0,0,0,0,0,0,0,0,0,0,0,0,0,0,0,0,0,0,0,0,0,0,0,0,0,0,0,0,0,0,0,0,0],"id":2,"left_children":[1,3,5,7,9,11,13,15,17,19,21,23,25,27,29,31,33,35,37,39,41,43,45,47,49,51,53,55,57,59,61,-1,-1,-1,-1,-1,-1,-1,-1,-1,-1,-1,-1,-1,-1,-1,-1,-1,-1,-1,-1,-1,-1,-1,-1,-1,-1,-1,-1,-1,-1,-1,-1],"loss_changes":[2.154945E5,4.191625E3,1.4838492E4,3.4371875E2,1.0567715E3,4.1694927E3,1.0831703E4,1.8046875E1,1.6497266E2,3.5271484E2,2.2651538E2,6.689532E2,9.2730615E2,6.451953E2,1.6418828E3,2.96875E-1,7.159375E1,4.871289E1,4.019925E1,8.741797E1,4.080493E1,2.0881653E2,1.558648E2,2.672627E2,2.553964E2,5.31947E2,3.7221094E2,1.7134862E2,1.7747461E2,1.2443506E3,5.746328E2,0E0,0E0,0E0,0E0,0E0,0E0,0E0,0E0,0E0,0E0,0E0,0E0,0E0,0E0,0E0,0E0,0E0,0E0,0E0,0E0,0E0,0E0,0E0,0E0,0E0,0E0,0E0,0E0,0E0,0E0,0E0,0E0],"parents":[2147483647,0,0,1,1,2,2,3,3,4,4,5,5,6,6,7,7,8,8,9,9,10,10,11,11,12,12,13,13,14,14,15,15,16,16,17,17,18,18,19,19,20,20,21,21,22,22,23,23,24,24,25,25,26,26,27,27,28,28,29,29,30,30],"right_children":[2,4,6,8,10,12,14,16,18,20,22,24,26,28,30,32,34,36,38,40,42,44,46,48,50,52,54,56,58,60,62,-1,-1,-1,-1,-1,-1,-1,-1,-1,-1,-1,-1,-1,-1,-1,-1,-1,-1,-1,-1,-1,-1,-1,-1,-1,-1,-1,-1,-1,-1,-1,-1],"split_conditions":[-9.970777E-1,-1.4114286E0,-3.0432767E-1,-2.0728428E0,1.2552279E-1,-1.8278821E-1,-6.2663E0,-2.7808962E0,4.812788E0,-1.1328012E0,-1.1764821E0,-7.677411E-1,-5.6356174E-1,-1.5357876E1,1.3863874E-2,6.5486865E0,4.812788E0,2.1042895E-1,6.5486865E0,-3.8266757E0,-2.0514746E-1,1.6978302E1,6.012493E0,-3.8266757E0,-6.2663E0,1.0766756E-1,1.7914209E-1,-1.9594734E1,-8.947239E0,-6.3627344E-1,6.8219614E-1,9.450331E-2,9.005639E-2,9.204038E-2,6.0306907E-2,8.637377E-2,7.7791154E-2,5.5742837E-2,1.0109993E-2,5.6323368E-2,7.752442E-2,5.4813545E-2,3.9375942E-2,4.7184773E-2,-9.783734E-2,2.262937E-2,-9.801383E-2,1.6692126E-3,4.252584E-2,5.16249E-2,1.239848E-3,-4.1383805E-4,-2.8610343E-2,-3.0395849E-2,-5.45564E-2,3.4087293E-2,-2.7413895E-2,8.815057E-2,4.5662835E-2,-2.0745305E-2,-5.8250453E-2,-6.528284E-2,-7.680687E-2],"split_indices":[0,0,0,0,3,3,3,0,3,0,0,0,0,2,0,3,3,3,3,3,3,2,3,3,3,3,3,2,3,3,0,0,0,0,0,0,0,0,0,0,0,0,0,0,0,0,0,0,0,0,0,0,0,0,0,0,0,0,0,0,0,0,0],"split_type":[0,0,0,0,0,0,0,0,0,0,0,0,0,0,0,0,0,0,0,0,0,0,0,0,0,0,0,0,0,0,0,0,0,0,0,0,0,0,0,0,0,0,0,0,0,0,0,0,0,0,0,0,0,0,0,0,0,0,0,0,0,0,0],"sum_hessian":[1.3197238E5,4.8761676E4,8.3210695E4,3.8517266E4,1.024441E4,2.3740182E4,5.9470516E4,2.9864361E4,8.652904E3,6.49227E3,3.7521396E3,9.035632E3,1.4704551E4,1.7786926E3,5.7691824E4,2.4495178E4,5.3691836E3,8.31907E3,3.3383386E2,4.6047E3,1.8875697E3,2.0318491E3,1.7202906E3,2.4162236E3,6.6194077E3,7.944927E3,6.759624E3,4.6654782E2,1.3121448E3,1.3944945E4,4.374688E4,2.3997977E4,4.9720084E2,5.1773154E3,1.9186772E2,5.820709E3,2.4983616E3,2.7472253E2,5.9111332E1,5.6797626E2,4.036724E3,1.19797E3,6.8959985E2,2.0076161E3,2.4233015E1,1.6940585E3,2.6232203E1,5.064444E2,1.9097793E3,2.6086844E2,6.3585396E3,2.394E3,5.5509272E3,2.5877148E3,4.171909E3,2.7581174E2,1.907361E2,9.7917084E2,3.3297394E2,2.7583264E3,1.1186619E4,2.3773312E4,1.9973564E4],"tree_param":{"num_deleted":"0","num_feature":"5","num_nodes":"63","size_leaf_vector":"1"}},{"base_weights":[-3.9134733E-3,1.5812919E0,-9.333652E-1,1.745302E0,1.0134472E0,-1.0563807E0,1.193995E0,1.7952114E0,1.5711751E0,1.2470603E0,6.2439233E-1,-4.6309745E-1,-1.278754E0,1.3247154E0,-6.670906E-1,1.8091112E0,1.7031109E0,1.7140591E0,1.3573295E0,1.4288025E0,8.6462855E-1,9.970043E-1,4.5622554E-1,9.5868595E-2,-8.05402E-1,1.1081709E0,-1.3460436E0,7.321078E-1,1.5005314E0,-1.4890238E0,1.0844944E0,9.059057E-2,8.117784E-2,8.7645516E-2,7.886944E-2,8.578851E-2,-7.275309E-2,7.023796E-2,2.314974E-2,7.940959E-2,6.1876297E-2,3.6432624E-2,8.089805E-2,5.7088632E-2,-5.617821E-2,1.5564561E-2,6.960948E-2,-3.7316028E-2,1.926259E-2,-6.0016293E-2,-3.020393E-2,7.009565E-2,2.732192E-2,-5.3492423E-2,-7.086337E-2,6.318527E-2,1.1904082E-2,4.9506117E-2,8.395997E-2,-4.994055E-2,-9.7557284E-2,7.176923E-2,-9.4579205E-2],"categories":[],"categories_nodes":[],"categories_segments":[],"categories_sizes":[],"default_left":[0,0,0,0,0,0,0,0,0,0,0,0,0,0,0,0,0,0,0,0,0,0,0,0,0,0,0,0,0,0,0,0,0,0,0,0,0,0,0,0,0,0,0,0,0,0,0,0,0,0,0,0,0,0,0,0,0,0,0,0,0,0,0],"id":3,"left_children":[1,3,5,7,9,11,13,15,17,19,21,23,25,27,29,31,33,35,37,39,41,43,45,47,49,51,53,55,57,59,61,-1,-1,-1,-1,-1,-1,-1,-1,-1,-1,-1,-1,-1,-1,-1,-1,-1,-1,-1,-1,-1,-1,-1,-1,-1,-1,-1,-1,-1,-1,-1,-1],"loss_changes":[1.9268781E5,4.5000547E3,2.1576203E4,3.231172E2,9.84001E2,1.02815E4,1.0973828E3,3.4226562E1,2.5320508E2,4.692334E2,2.5439417E2,4.0658472E3,9.106406E3,4.3771338E2,4.2842822E2,9.734375E0,2.1266602E1,2.9661133E1,1.4164014E2,1.3787695E2,2.2244421E2,3.8929224E2,3.7996527E2,1.9674186E3,1.0470947E3,2.5578455E2,1.0830547E3,2.5328339E2,2.944497E2,4.3857086E1,1.02196365E2,0E0,0E0,0E0,0E0,0E0,0E0,0E0,0E0,0E0,0E0,0E0,0E0,0E0,0E0,0E0,0E0,0E0,0E0,0E0,0E0,0E0,0E0,0E0,0E0,0E0,0E0,0E0,0E0,0E0,0E0,0E0,0E0],"parents":[2147483647,0,0,1,1,2,2,3,3,4,4,5,5,6,6,7,7,8,8,9,9,10,10,11,11,12,12,13,13,14,14,15,15,16,16,17,17,18,18,19,19,20,20,21,21,22,22,23,23,24,24,25,25,26,26,27,27,28,28,29,29,30,30],"right_children":[2,4,6,8,10,12,14,16,18,20,22,24,26,28,30,32,34,36,38,40,42,44,46,48,50,52,54,56,58,60,62,-1,-1,-1,-1,-1,-1,-1,-1,-1,-1,-1,-1,-1,-1,-1,-1,-1,-1,-1,-1,-1,-1,-1,-1,-1,-1,-1,-1,-1,-1,-1,-1],"split_conditions":[-9.6980166E-1,-1.4114286E0,1.811741E0,-2.0728428E0,1.2552279E-1,-3.0432767E-1,1.6603754E0,1.7145021E0,3.5384666E-2,-1.1328012E0,-4.8533553E-1,-1.9168901E-1,-6.2663E0,2.1162417E0,2.8490016E0,6.012493E0,-3.4948838E0,5.7667294E0,5.1925735E0,-2.0369075E-1,1.9346485E0,-1.0276172E0,1.9346485E0,-3.3807102E-1,-3.6193144E-1,-8.947239E0,-3.2622024E-2,-2.5123455E-2,-4.352547E-1,-4.830542E-2,-1.7859077E-1,9.059057E-2,8.117784E-2,8.7645516E-2,7.886944E-2,8.578851E-2,-7.275309E-2,7.023796E-2,2.314974E-2,7.940959E-2,6.1876297E-2,3.6432624E-2,8.089805E-2,5.7088632E-2,-5.617821E-2,1.5564561E-2,6.960948E-2,-3.7316028E-2,1.926259E-2,-6.0016293E-2,-3.020393E-2,7.009565E-2,2.732192E-2,-5.3492423E-2,-7.086337E-2,6.318527E-2,1.1904082E-2,4.9506117E-2,8.395997E-2,-4.994055E-2,-9.7557284E-2,7.176923E-2,-9.4579205E-2],"split_indices":[0,0,1,0,3,0,3,1,1,0,1,3,3,1,1,3,0,3,3,1,1,0,1,1,1,3,0,0,3,0,0,0,0,0,0,0,0,0,0,0,0,0,0,0,0,0,0,0,0,0,0,0,0,0,0,0,0,0,0,0,0,0,0],"split_type":[0,0,0,0,0,0,0,0,0,0,0,0,0,0,0,0,0,0,0,0,0,0,0,0,0,0,0,0,0,0,0,0,0,0,0,0,0,0,0,0,0,0,0,0,0,0,0,0,0,0,0,0,0,0,0,0,0,0,0,0,0,0,0],"sum_hessian":[1.3077815E5,4.8337137E4,8.2441016E4,3.7503086E4,1.0834054E4,7.79349E4,4.5061143E3,2.9141133E4,8.361952E3,6.7679463E3,4.066108E3,2.124831E4,5.668659E4,4.2106514E3,2.9546286E2,2.5303658E4,3.8374744E3,5.008463E3,3.3534895E3,4.585875E3,2.1820713E3,1.262911E3,2.8031968E3,8.070428E3,1.3177883E4,1.5538096E3,5.5132777E4,9.645822E2,3.2460688E3,2.0119963E2,9.426325E1,2.49321E4,3.7155856E2,2.739429E3,1.0980453E3,5.0062183E3,2.2443295E0,3.1840574E3,1.6943227E2,2.4974575E3,2.0884175E3,1.850097E3,3.319742E2,1.1826356E3,8.027537E1,2.4284785E3,3.7471817E2,2.063491E3,6.0069375E3,4.4478477E3,8.730035E3,1.0193E3,5.3450964E2,1.1305972E4,4.382681E4,4.6387302E2,5.007092E2,8.43356E2,2.402713E3,9.916648E1,1.0203315E2,8.478454E1,9.478707E0],"tree_param":{"num_deleted":"0","num_feature":"5","num_nodes":"63","size_leaf_vector":"1"}},{"base_weights":[-3.0422693E-3,1.517086E0,-8.956037E-1,1.6766186E0,9.648016E-1,-2.7656895E-1,-1.133745E0,1.725186E0,1.5064479E0,1.1906731E0,6.0539854E-1,1.2461791E-1,-6.75447E-1,1.1043997E0,-1.205601E0,1.7371402E0,1.6685116E0,1.5292792E0,7.146089E-1,1.3635536E0,8.4592414E-1,8.251363E-1,3.9501816E-1,4.224376E-1,-1.5246727E-1,-3.6731696E-1,-8.0053425E-1,2.076504E-1,1.4328052E0,-9.0608925E-1,-1.2863437E0,8.69363E-2,8.3011515E-2,8.446932E-2,5.4489233E-2,7.918717E-2,7.015555E-2,4.6321567E-2,-3.655027E-3,3.8075726E-2,6.980919E-2,4.8975483E-2,2.9344453E-2,5.4138985E-2,2.2884257E-2,2.1450132E-2,-9.5211476E-2,-6.3603073E-3,2.5890414E-2,4.6395613E-3,-3.2103267E-2,-1.2010926E-2,-4.3960128E-2,2.3705815E-3,-4.3463167E-2,2.9575704E-2,-1.4177618E-2,8.211014E-2,3.769678E-2,-1.9898204E-2,-5.1417153E-2,-4.956008E-2,-6.632132E-2],"categories":[],"categories_nodes":[],"categories_segments":[],"categories_sizes":[],"default_left":[0,0,0,0,0,0,0,0,0,0,0,0,0,0,0,0,0,0,0,0,0,0,0,0,0,0,0,0,0,0,0,0,0,0,0,0,0,0,0,0,0,0,0,0,0,0,0,0,0,0,0,0,0,0,0,0,0,0,0,0,0,0,0],"id":4,"left_children":[1,3,5,7,9,11,13,15,17,19,21,23,25,27,29,31,33,35,37,39,41,43,45,47,49,51,53,55,57,59,61,-1,-1,-1,-1,-1,-1,-1,-1,-1,-1,-1,-1,-1,-1,-1,-1,-1,-1,-1,-1,-1,-1,-1,-1,-1,-1,-1,-1,-1,-1,-1,-1],"loss_changes":[1.7654186E5,4.2394844E3,1.2084992E4,3.060547E2,8.7524023E2,3.6449778E3,9.522742E3,1.6773438E1,1.4896094E2,3.93708E2,1.9227808E2,9.3722034E2,4.3992822E2,5.4220996E2,1.3860625E3,3.90625E-2,5.9589844E1,5.320703E1,3.9192863E1,8.558496E1,7.608313E1,1.92344E2,1.6728491E2,2.869983E2,7.0657324E2,2.1446756E2,4.734287E2,9.3495094E1,1.9041162E2,7.5644727E2,5.331719E2,0E0,0E0,0E0,0E0,0E0,0E0,0E0,0E0,0E0,0E0,0E0,0E0,0E0,0E0,0E0,0E0,0E0,0E0,0E0,0E0,0E0,0E0,0E0,0E0,0E0,0E0,0E0,0E0,0E0,0E0,0E0,0E0],"parents":[2147483647,0,0,1,1,2,2,3,3,4,4,5,5,6,6,7,7,8,8,9,9,10,10,11,11,12,12,13,13,14,14,15,15,16,16,17,17,18,18,19,19,20,20,21,21,22,22,23,23,24,24,25,25,26,26,27,27,28,28,29,29,30,30],"right_children":[2,4,6,8,10,12,14,16,18,20,22,24,26,28,30,32,34,36,38,40,42,44,46,48,50,52,54,56,58,60,62,-1,-1,-1,-1,-1,-1,-1,-1,-1,-1,-1,-1,-1,-1,-1,-1,-1,-1,-1,-1,-1,-1,-1,-1,-1,-1,-1,-1,-1,-1,-1,-1],"split_conditions":[-9.6980166E-1,-1.4114286E0,-3.1244916E-1,-2.0728428E0,1.12144776E-1,7.1313675E-3,-6.2663E0,-2.7808962E0,5.0920377E0,-1.1328012E0,-1.1764821E0,-6.099049E-1,2.1713136E-1,-1.5357876E1,-3.2622024E-2,6.5486865E0,4.812788E0,2.1713136E-1,6.5486865E0,-1.2702406E1,-1.9841823E-1,5.410992E-1,6.012493E0,-4.208713E0,-3.1010723E-1,-4.1825712E-1,-7.339991E-1,-1.9594734E1,-8.947239E0,-6.3627344E-1,-2.061689E0,8.69363E-2,8.3011515E-2,8.446932E-2,5.4489233E-2,7.918717E-2,7.015555E-2,4.6321567E-2,-3.655027E-3,3.8075726E-2,6.980919E-2,4.8975483E-2,2.9344453E-2,5.4138985E-2,2.2884257E-2,2.1450132E-2,-9.5211476E-2,-6.3603073E-3,2.5890414E-2,4.6395613E-3,-3.2103267E-2,-1.2010926E-2,-4.3960128E-2,2.3705815E-3,-4.3463167E-2,2.9575704E-2,-1.4177618E-2,8.211014E-2,3.769678E-2,-1.9898204E-2,-5.1417153E-2,-4.956008E-2,-6.632132E-2],"split_indices":[0,0,0,0,3,3,3,0,3,0,0,0,3,2,0,3,3,3,3,2,3,3,3,3,3,0,2,2,3,3,3,0,0,0,0,0,0,0,0,0,0,0,0,0,0,0,0,0,0,0,0,0,0,0,0,0,0,0,0,0,0,0,0],"split_type":[0,0,0,0,0,0,0,0,0,0,0,0,0,0,0,0,0,0,0,0,0,0,0,0,0,0,0,0,0,0,0,0,0,0,0,0,0,0,0,0,0,0,0,0,0,0,0,0,0,0,0,0,0,0,0,0,0,0,0,0,0,0,0],"sum_hessian":[1.30113586E5,4.8134555E4,8.197903E4,3.7345047E4,1.0789507E4,2.2776076E4,5.9202953E4,2.904605E4,8.298997E3,6.6241562E3,4.1653506E3,1.1355519E4,1.1420559E4,1.8411481E3,5.736181E4,2.3962082E4,5.0839688E3,8.065511E3,2.3348647E2,4.409819E3,2.2143374E3,2.0359364E3,2.1294143E3,5.4727324E3,5.882786E3,3.2987104E3,8.121848E3,4.939613E2,1.3471868E3,1.218273E4,4.517908E4,2.3456834E4,5.0524704E2,4.9051216E3,1.7884729E2,5.625535E3,2.4399758E3,1.8386684E2,4.961963E1,2.2797174E2,4.181847E3,1.4590948E3,7.552426E2,1.1956462E3,8.402901E2,2.0992E3,3.0214231E1,8.0913904E2,4.6635933E3,3.919945E3,1.962841E3,2.6437507E3,6.549598E2,6.089709E2,7.5128774E3,2.7716162E2,2.1679967E2,1.0285203E3,3.186665E2,2.3635083E3,9.819223E3,5.4051187E3,3.9773957E4],"tree_param":{"num_deleted":"0","num_feature":"5","num_nodes":"63","size_leaf_vector":"1"}},{"base_weights":[-2.6960415E-4,-1.17010474E-1,1.3542476E0,1.1040635E0,-1.4094302E-1,9.096712E-1,1.4699373E0,5.013893E-1,1.4284765E0,1.0274097E-1,-2.3624878E-1,9.627624E-1,-5.867545E-1,1.5150188E0,1.1349777E0,1.0822518E0,2.9654393E-1,1.5813725E0,1.1690952E0,2.807601E-1,-4.0506493E-2,-1.4574264E-1,-4.1798458E-1,7.947222E-1,1.2607132E0,-8.964532E-2,6.1511155E-2,1.307122E0,1.5937473E0,6.359496E-1,1.4278146E0,6.669078E-2,7.3036314E-3,-9.7922385E-2,1.871078E-2,8.270598E-2,7.542359E-2,5.909418E-2,-6.8396755E-2,-3.257238E-2,1.4946689E-2,-4.1599367E-3,7.947035E-3,-8.320857E-3,1.840703E-2,-1.145888E-2,-2.2351095E-2,7.6648235E-2,3.3709966E-2,8.325637E-2,5.390805E-2,2.8725687E-2,-8.636399E-2,5.917248E-2,7.2327115E-2,3.2641377E-2,7.9981394E-2,3.8178723E-2,7.985681E-4,7.546845E-2,6.732441E-2],"categories":[],"categories_nodes":[],"categories_segments":[],"categories_sizes":[],"default_left":[0,0,0,0,0,0,0,0,0,0,0,0,0,0,0,0,0,0,0,0,0,0,0,0,0,0,0,0,0,0,0,0,0,0,0,0,0,0,0,0,0,0,0,0,0,0,0,0,0,0,0,0,0,0,0,0,0,0,0,0,0],"id":5,"left_children":[1,3,5,7,9,11,13,15,17,19,21,23,25,27,29,31,33,35,37,39,41,43,45,47,49,-1,51,53,55,57,59,-1,-1,-1,-1,-1,-1,-1,-1,-1,-1,-1,-1,-1,-1,-1,-1,-1,-1,-1,-1,-1,-1,-1,-1,-1,-1,-1,-1,-1,-1],"loss_changes":[2.0452521E4,3.4800493E3,5.265176E2,4.468474E2,2.7124314E3,1.6913818E2,1.2123047E2,9.517517E1,5.7145752E1,8.373559E2,1.3808618E3,1.0161243E2,5.7441147E1,1.1532617E2,1.4081714E2,4.8994827E1,1.04895744E2,2.453125E0,1.9640076E1,2.4823999E2,1.5494817E2,5.9551416E2,1.5291455E2,1.15803894E2,5.2641968E1,0E0,4.5642563E1,3.2357178E1,2.7717773E1,2.8508514E1,2.0159912E0,0E0,0E0,0E0,0E0,0E0,0E0,0E0,0E0,0E0,0E0,0E0,0E0,0E0,0E0,0E0,0E0,0E0,0E0,0E0,0E0,0E0,0E0,0E0,0E0,0E0,0E0,0E0,0E0,0E0,0E0],"parents":[2147483647,0,0,1,1,2,2,3,3,4,4,5,5,6,6,7,7,8,8,9,9,10,10,11,11,12,12,13,13,14,14,15,15,16,16,17,17,18,18,19,19,20,20,21,21,22,22,23,23,24,24,26,26,27,27,28,28,29,29,30,30],"right_children":[2,4,6,8,10,12,14,16,18,20,22,24,26,28,30,32,34,36,38,40,42,44,46,48,50,-1,52,54,56,58,60,-1,-1,-1,-1,-1,-1,-1,-1,-1,-1,-1,-1,-1,-1,-1,-1,-1,-1,-1,-1,-1,-1,-1,-1,-1,-1,-1,-1,-1,-1],"split_conditions":[1.811741E0,-6.2663E0,2.1162417E0,-1.2702406E1,-5.382614E-1,1.287635E1,1.4986327E0,2.1625994E-1,-8.947239E0,-4.6514746E-2,2.1713136E-1,3.6314118E-1,1.6978302E1,-4.4863272E-1,2.8490016E0,-1.9594734E1,3.4707558E-1,-6.505674E-1,8.710849E0,-1.5357876E1,7.019571E-1,1.406172E0,-5.4480255E-1,-8.947239E0,-2.2408578E0,-8.964532E-2,1.8819792E1,2.8490016E0,-3.5406265E0,1.6491148E0,-5.7557877E-2,6.669078E-2,7.3036314E-3,-9.7922385E-2,1.871078E-2,8.270598E-2,7.542359E-2,5.909418E-2,-6.8396755E-2,-3.257238E-2,1.4946689E-2,-4.1599367E-3,7.947035E-3,-8.320857E-3,1.840703E-2,-1.145888E-2,-2.2351095E-2,7.6648235E-2,3.3709966E-2,8.325637E-2,5.390805E-2,2.8725687E-2,-8.636399E-2,5.917248E-2,7.2327115E-2,3.2641377E-2,7.9981394E-2,3.8178723E-2,7.985681E-4,7.546845E-2,6.732441E-2],"split_indices":[1,3,1,2,1,2,3,1,3,3,3,2,2,3,1,2,1,2,2,2,3,1,2,3,3,0,2,1,2,2,2,0,0,0,0,0,0,0,0,0,0,0,0,0,0,0,0,0,0,0,0,0,0,0,0,0,0,0,0,0,0],"split_type":[0,0,0,0,0,0,0,0,0,0,0,0,0,0,0,0,0,0,0,0,0,0,0,0,0,0,0,0,0,0,0,0,0,0,0,0,0,0,0,0,0,0,0,0,0,0,0,0,0,0,0,0,0,0,0,0,0,0,0,0,0],"sum_hessian":[1.2933996E5,1.1907798E5,1.026198E4,2.2881477E3,1.1678983E5,2.120833E3,8.1411475E3,8.015758E2,1.4865718E3,3.2835023E4,8.3954805E4,2.0485112E3,7.232186E1,7.1723164E3,9.688309E2,2.078657E2,5.937101E2,9.320595E2,5.545123E2,1.4640167E4,1.8194857E4,5.6045445E4,2.790936E4,1.312146E3,7.3636523E2,2.4664963E1,4.76569E1,1.9748821E3,5.1974346E3,3.594529E2,6.093779E2,1.63505E2,4.4360703E1,1.8962736E1,5.747474E2,4.5566473E2,4.7639474E2,5.522627E2,2.2496343E0,2.7929022E2,1.4360877E4,1.49873545E4,3.2075032E3,5.387849E4,2.1669573E3,3.7213342E3,2.4188025E4,1.8250768E2,1.1296383E3,2.2649095E2,5.098743E2,3.7563103E1,1.0093797E1,1.0515743E3,9.2330774E2,3.2977203E1,5.1644575E3,2.978979E2,6.1555023E1,2.9549527E2,3.1388266E2],"tree_param":{"num_deleted":"0","num_feature":"5","num_nodes":"61","size_leaf_vector":"1"}},{"base_weights":[2.0924134E-3,1.4419936E0,-8.613657E-1,1.61194E0,8.860569E-1,-9.795745E-1,1.127854E0,1.6602238E0,1.4445915E0,1.0897493E0,4.897034E-1,-3.881196E-1,-1.163457E0,1.2455586E0,-6.041227E-1,1.6779524E0,1.5384756E0,1.5612315E0,1.1884613E0,1.2785118E0,7.8569627E-1,6.850689E-1,1.3303372E-1,1.3540132E-1,-6.8843055E-1,9.6243685E-1,-1.22249E0,6.6967404E-1,1.4126121E0,-1.3814075E0,1.0168434E0,8.4021404E-2,7.619734E-2,7.890044E-2,6.872008E-2,7.8268126E-2,-8.977868E-2,6.173853E-2,2.6741875E-2,7.271158E-2,5.6039758E-2,3.435778E-2,7.390206E-2,5.715827E-2,2.2164738E-2,-7.4755564E-2,1.1871171E-2,-3.739714E-2,2.0516744E-2,-5.4590173E-2,-2.521053E-2,9.051981E-3,6.505533E-2,-4.7235694E-2,-6.537823E-2,5.8764335E-2,9.885628E-3,4.911875E-2,7.975059E-2,4.9561277E-2,-7.634479E-2,6.774319E-2,-9.0526134E-2],"categories":[],"categories_nodes":[],"categories_segments":[],"categories_sizes":[],"default_left":[0,0,0,0,0,0,0,0,0,0,0,0,0,0,0,0,0,0,0,0,0,0,0,0,0,0,0,0,0,0,0,0,0,0,0,0,0,0,0,0,0,0,0,0,0,0,0,0,0,0,0,0,0,0,0,0,0,0,0,0,0,0,0],"id":6,"left_children":[1,3,5,7,9,11,13,15,17,19,21,23,25,27,29,31,33,35,37,39,41,43,45,47,49,51,53,55,57,59,61,-1,-1,-1,-1,-1,-1,-1,-1,-1,-1,-1,-1,-1,-1,-1,-1,-1,-1,-1,-1,-1,-1,-1,-1,-1,-1,-1,-1,-1,-1,-1,-1],"loss_changes":[1.6071073E5,4.5766953E3,1.9002023E4,2.9745312E2,9.1555664E2,8.294945E3,9.2485205E2,5.9570312E1,2.4662695E2,4.2912305E2,2.6843707E2,2.844331E3,7.3031016E3,4.0742383E2,3.6569427E2,7.0234375E0,2.1649414E1,8.201465E1,7.8241455E1,1.2646875E2,1.950011E2,2.7523328E2,2.323628E2,1.6020981E3,8.537407E2,4.159259E2,1.3366016E3,2.2798767E2,2.565752E2,6.911737E1,9.256124E1,0E0,0E0,0E0,0E0,0E0,0E0,0E0,0E0,0E0,0E0,0E0,0E0,0E0,0E0,0E0,0E0,0E0,0E0,0E0,0E0,0E0,0E0,0E0,0E0,0E0,0E0,0E0,0E0,0E0,0E0,0E0,0E0],"parents":[2147483647,0,0,1,1,2,2,3,3,4,4,5,5,6,6,7,7,8,8,9,9,10,10,11,11,12,12,13,13,14,14,15,15,16,16,17,17,18,18,19,19,20,20,21,21,22,22,23,23,24,24,25,25,26,26,27,27,28,28,29,29,30,30],"right_children":[2,4,6,8,10,12,14,16,18,20,22,24,26,28,30,32,34,36,38,40,42,44,46,48,50,52,54,56,58,60,62,-1,-1,-1,-1,-1,-1,-1,-1,-1,-1,-1,-1,-1,-1,-1,-1,-1,-1,-1,-1,-1,-1,-1,-1,-1,-1,-1,-1,-1,-1,-1,-1],"split_conditions":[-9.451406E-1,-1.4114286E0,1.811741E0,-2.0728428E0,1.8581769E-1,-3.6395133E-1,1.6603754E0,1.7145021E0,4.6924123E-1,-1.1328012E0,-1.0975434E0,-2.2297587E-1,-6.2663E0,2.1162417E0,2.8490016E0,6.012493E0,-2.7808962E0,5.7667294E0,5.0920377E0,-3.536602E-1,1.9346485E0,-4.8533553E-1,-9.164442E-1,-3.456422E-1,-4.1175482E-1,-1.5357876E1,-4.0441602E-2,-2.5123455E-2,-3.2798928E-1,-8.755123E-1,-1.7859077E-1,8.4021404E-2,7.619734E-2,7.890044E-2,6.872008E-2,7.8268126E-2,-8.977868E-2,6.173853E-2,2.6741875E-2,7.271158E-2,5.6039758E-2,3.435778E-2,7.390206E-2,5.715827E-2,2.2164738E-2,-7.4755564E-2,1.1871171E-2,-3.739714E-2,2.0516744E-2,-5.4590173E-2,-2.521053E-2,9.051981E-3,6.505533E-2,-4.7235694E-2,-6.537823E-2,5.8764335E-2,9.885628E-3,4.911875E-2,7.975059E-2,4.9561277E-2,-7.634479E-2,6.774319E-2,-9.0526134E-2],"split_indices":[0,0,1,0,3,0,3,1,1,0,0,3,3,1,1,3,0,3,3,1,1,1,1,1,1,2,0,0,3,0,0,0,0,0,0,0,0,0,0,0,0,0,0,0,0,0,0,0,0,0,0,0,0,0,0,0,0,0,0,0,0,0,0],"split_type":[0,0,0,0,0,0,0,0,0,0,0,0,0,0,0,0,0,0,0,0,0,0,0,0,0,0,0,0,0,0,0,0,0,0,0,0,0,0,0,0,0,0,0,0,0,0,0,0,0,0,0,0,0,0,0,0,0,0,0,0,0,0,0],"sum_hessian":[1.29260016E5,4.8455324E4,8.080469E4,3.7109336E4,1.1345989E4,7.627271E4,4.5319775E3,2.8792979E4,8.316357E3,7.4933086E3,3.8526812E3,1.8089922E4,5.818279E4,4.243848E3,2.8812967E2,2.5122021E4,3.6709575E3,5.710663E3,2.6056946E3,4.62118E3,2.872128E3,2.4886204E3,1.3640607E3,6.594509E3,1.1495413E4,1.5715833E3,5.6611207E4,9.553773E2,3.2884707E3,1.9484534E2,9.328434E1,2.471482E4,4.072015E2,2.9512446E3,7.1971277E2,5.704177E3,6.4859934E0,2.4324653E3,1.732292E2,2.1819463E3,2.439234E3,2.5160186E3,3.561096E2,8.5841974E2,1.6302007E3,8.138548E1,1.2826752E3,1.5648914E3,5.0296177E3,3.602455E3,7.8929585E3,4.7565677E2,1.0959265E3,1.3275984E4,4.3335223E4,4.6052567E2,4.9485165E2,9.809747E2,2.3074958E3,1.0921626E1,1.839237E2,8.3788025E1,9.496314E0],"tree_param":{"num_deleted":"0","num_feature":"5","num_nodes":"63","size_leaf_vector":"1"}},{"base_weights":[-2.025006E-3,-1.1857819E-1,1.1703771E0,9.749864E-1,-1.3829838E-1,7.174684E-1,1.3691664E0,3.807706E-1,1.2574439E0,1.03700794E-1,-2.3491043E-1,7.7861E-1,-8.82017E-1,1.4097022E0,1.0646279E0,7.9076505E-1,-8.8971935E-2,1.4341339E0,9.8892015E-1,3.525624E-1,1.8310515E-2,-1.6140424E-1,-3.8096544E-1,1.4658489E0,6.772214E-1,-1.2141514E0,2.2450428E-1,1.2032856E0,1.4848257E0,5.4325235E-1,1.3358563E0,6.909075E-2,3.1607058E-2,9.2923996E-4,-9.348292E-2,6.180889E-2,7.287709E-2,-8.887337E-2,5.0853312E-2,-1.8681519E-2,1.9218808E-2,1.565775E-2,-4.672331E-4,-2.0610955E-2,-6.3998075E-3,-9.629218E-3,-2.0459201E-2,2.8826749E-2,7.853418E-2,3.6858183E-3,4.016999E-2,1.5649682E-2,-7.3563956E-2,3.454646E-2,-7.943954E-2,5.3920288E-2,6.75505E-2,2.783483E-2,7.452654E-2,3.0589474E-2,-2.2877239E-2,4.3420497E-2,6.7426905E-2],"categories":[],"categories_nodes":[],"categories_segments":[],"categories_sizes":[],"default_left":[0,0,0,0,0,0,0,0,0,0,0,0,0,0,0,0,0,0,0,0,0,0,0,0,0,0,0,0,0,0,0,0,0,0,0,0,0,0,0,0,0,0,0,0,0,0,0,0,0,0,0,0,0,0,0,0,0,0,0,0,0,0,0],"id":7,"left_children":[1,3,5,7,9,11,13,15,17,19,21,23,25,27,29,31,33,35,37,39,41,43,45,47,49,51,53,55,57,59,61,-1,-1,-1,-1,-1,-1,-1,-1,-1,-1,-1,-1,-1,-1,-1,-1,-1,-1,-1,-1,-1,-1,-1,-1,-1,-1,-1,-1,-1,-1,-1,-1],"loss_changes":[1.7470246E4,2.5079336E3,1.0398682E3,3.452738E2,2.670715E3,3.457561E2,9.766699E1,1.2817323E2,6.480859E1,6.9259595E2,8.763999E2,2.3585156E2,4.8189865E1,1.0810156E2,1.3329688E2,3.243416E1,5.957747E1,2.0889893E0,4.5192017E1,1.925044E2,1.9787752E2,4.55011E2,1.4520679E2,3.975641E1,2.2564502E2,3.989952E1,2.7269623E1,3.3522705E1,2.6658203E1,2.2641052E1,2.5205078E0,0E0,0E0,0E0,0E0,0E0,0E0,0E0,0E0,0E0,0E0,0E0,0E0,0E0,0E0,0E0,0E0,0E0,0E0,0E0,0E0,0E0,0E0,0E0,0E0,0E0,0E0,0E0,0E0,0E0,0E0,0E0,0E0],"parents":[2147483647,0,0,1,1,2,2,3,3,4,4,5,5,6,6,7,7,8,8,9,9,10,10,11,11,12,12,13,13,14,14,15,15,16,16,17,17,18,18,19,19,20,20,21,21,22,22,23,23,24,24,25,25,26,26,27,27,28,28,29,29,30,30],"right_children":[2,4,6,8,10,12,14,16,18,20,22,24,26,28,30,32,34,36,38,40,42,44,46,48,50,52,54,56,58,60,62,-1,-1,-1,-1,-1,-1,-1,-1,-1,-1,-1,-1,-1,-1,-1,-1,-1,-1,-1,-1,-1,-1,-1,-1,-1,-1,-1,-1,-1,-1,-1,-1],"split_conditions":[1.6303923E0,-6.2663E0,2.1162417E0,-1.5357876E1,-5.382614E-1,1.287635E1,1.4986327E0,5.551329E-1,-8.947239E0,-3.1903484E-1,2.1713136E-1,-8.947239E0,5.0920377E0,-4.4863272E-1,2.8490016E0,-1.8904167E-1,-1.612964E1,-1.2702406E1,-1.4540898E1,-1.4540898E1,-1.2763805E0,-4.042922E0,-5.598729E-1,-1.2702406E1,-1.1273718E0,-5.1805363E0,8.825281E0,2.8490016E0,-3.5406265E0,1.287635E1,-3.1851113E0,6.909075E-2,3.1607058E-2,9.2923996E-4,-9.348292E-2,6.180889E-2,7.287709E-2,-8.887337E-2,5.0853312E-2,-1.8681519E-2,1.9218808E-2,1.565775E-2,-4.672331E-4,-2.0610955E-2,-6.3998075E-3,-9.629218E-3,-2.0459201E-2,2.8826749E-2,7.853418E-2,3.6858183E-3,4.016999E-2,1.5649682E-2,-7.3563956E-2,3.454646E-2,-7.943954E-2,5.3920288E-2,6.75505E-2,2.783483E-2,7.452654E-2,3.0589474E-2,-2.2877239E-2,4.3420497E-2,6.7426905E-2],"split_indices":[1,3,1,2,1,2,3,1,3,3,3,3,3,3,1,1,2,2,2,2,1,3,2,2,2,3,3,1,2,2,2,0,0,0,0,0,0,0,0,0,0,0,0,0,0,0,0,0,0,0,0,0,0,0,0,0,0,0,0,0,0,0,0],"split_type":[0,0,0,0,0,0,0,0,0,0,0,0,0,0,0,0,0,0,0,0,0,0,0,0,0,0,0,0,0,0,0,0,0,0,0,0,0,0,0,0,0,0,0,0,0,0,0,0,0,0,0,0,0,0,0,0,0,0,0,0,0,0,0],"sum_hessian":[1.27847266E5,1.16287555E5,1.1559711E4,2.0590042E3,1.1422855E5,3.5274966E3,8.0322144E3,6.6415216E2,1.394852E3,3.2591498E4,8.1637055E4,3.3981143E3,1.2938231E2,7.0854688E3,9.4674585E2,3.5426443E2,3.0988776E2,8.3866534E2,5.561867E2,8.325248E3,2.426625E4,5.4307445E4,2.7329607E4,4.3514267E2,2.9629714E3,9.943773E1,2.994458E1,1.8951593E3,5.1903096E3,3.2500327E2,6.2174255E2,7.332735E1,2.8093707E2,2.9316934E2,1.6718405E1,9.4373695E1,7.442916E2,4.975845E0,5.512109E2,3.4896237E2,7.976286E3,2.080008E3,2.218624E4,6.382065E3,4.792538E4,3.5615173E3,2.376809E4,4.6571957E1,3.885707E2,5.126373E2,2.4503342E3,1.4298446E1,8.513928E1,2.4310322E1,5.6342587E0,1.0314861E3,8.636732E2,3.231081E1,5.1579985E3,3.0453653E2,2.0466736E1,1.8257349E1,6.034852E2],"tree_param":{"num_deleted":"0","num_feature":"5","num_nodes":"63","size_leaf_vector":"1"}},{"base_weights":[5.2411226E-3,1.3909847E0,-8.236556E-1,1.556413E0,8.591982E-1,-9.2961085E-1,1.0166733E0,1.6039938E0,1.3922995E0,1.0501465E0,4.9699914E-1,-4.0304434E-1,-1.125458E0,1.1289319E0,-5.410001E-1,1.6253183E0,1.4602945E0,1.5112299E0,1.1288558E0,1.2356669E0,7.4378574E-1,6.603845E-1,3.755752E-2,7.131646E-2,-6.9395375E-1,8.5565037E-1,-1.1800351E0,5.603519E-1,1.293137E0,-1.1958435E0,8.577513E-1,8.13796E-2,7.4508846E-2,7.5662725E-2,6.642209E-2,7.575285E-2,-8.4464565E-2,6.301115E-2,4.554444E-2,6.935131E-2,5.321296E-2,3.3038627E-2,6.9396995E-2,5.453671E-2,2.186474E-2,-9.4084434E-2,1.1126175E-2,-3.724992E-2,1.7194021E-2,-5.3166248E-2,-2.6108691E-2,5.529649E-2,2.1710714E-2,-4.682247E-2,-6.2173106E-2,5.436657E-2,2.8109786E-3,4.1006416E-2,7.3076844E-2,-9.042236E-2,-3.0697256E-2,5.967884E-2,-8.988734E-2],"categories":[],"categories_nodes":[],"categories_segments":[],"categories_sizes":[],"default_left":[0,0,0,0,0,0,0,0,0,0,0,0,0,0,0,0,0,0,0,0,0,0,0,0,0,0,0,0,0,0,0,0,0,0,0,0,0,0,0,0,0,0,0,0,0,0,0,0,0,0,0,0,0,0,0,0,0,0,0,0,0,0,0],"id":8,"left_children":[1,3,5,7,9,11,13,15,17,19,21,23,25,27,29,31,33,35,37,39,41,43,45,47,49,51,53,55,57,59,61,-1,-1,-1,-1,-1,-1,-1,-1,-1,-1,-1,-1,-1,-1,-1,-1,-1,-1,-1,-1,-1,-1,-1,-1,-1,-1,-1,-1,-1,-1,-1,-1],"loss_changes":[1.47195E5,4.2180938E3,1.5636277E4,2.8341406E2,7.8670215E2,7.8185547E3,7.6400635E2,8.450781E1,2.5614258E2,4.226416E2,2.950713E2,2.8367434E3,5.9763594E3,3.7950293E2,2.70459E2,5.15625E0,2.364209E1,7.1975586E1,7.225879E1,1.18904785E2,1.4951685E2,2.7792688E2,3.668854E2,1.739119E3,8.079414E2,1.558601E2,8.2978125E2,2.4285284E2,2.5044482E2,7.0459564E1,8.631308E1,0E0,0E0,0E0,0E0,0E0,0E0,0E0,0E0,0E0,0E0,0E0,0E0,0E0,0E0,0E0,0E0,0E0,0E0,0E0,0E0,0E0,0E0,0E0,0E0,0E0,0E0,0E0,0E0,0E0,0E0,0E0,0E0],"parents":[2147483647,0,0,1,1,2,2,3,3,4,4,5,5,6,6,7,7,8,8,9,9,10,10,11,11,12,12,13,13,14,14,15,15,16,16,17,17,18,18,19,19,20,20,21,21,22,22,23,23,24,24,25,25,26,26,27,27,28,28,29,29,30,30],"right_children":[2,4,6,8,10,12,14,16,18,20,22,24,26,28,30,32,34,36,38,40,42,44,46,48,50,52,54,56,58,60,62,-1,-1,-1,-1,-1,-1,-1,-1,-1,-1,-1,-1,-1,-1,-1,-1,-1,-1,-1,-1,-1,-1,-1,-1,-1,-1,-1,-1,-1,-1,-1,-1],"split_conditions":[-9.451406E-1,-1.4114286E0,1.811741E0,-2.0728428E0,1.8581769E-1,-3.0432767E-1,1.6603754E0,1.7145021E0,4.6924123E-1,-1.1328012E0,-1.0622983E0,-1.9168901E-1,-6.2663E0,2.1162417E0,2.8490016E0,6.012493E0,-3.4948838E0,5.7667294E0,1.6576408E-1,-2.0369075E-1,2.1162417E0,-4.8533553E-1,-6.4359313E-1,-3.456422E-1,-4.1175482E-1,-8.947239E0,-3.2622024E-2,-2.5123455E-2,-4.352547E-1,2.1162417E0,-1.7859077E-1,8.13796E-2,7.4508846E-2,7.5662725E-2,6.642209E-2,7.575285E-2,-8.4464565E-2,6.301115E-2,4.554444E-2,6.935131E-2,5.321296E-2,3.3038627E-2,6.9396995E-2,5.453671E-2,2.186474E-2,-9.4084434E-2,1.1126175E-2,-3.724992E-2,1.7194021E-2,-5.3166248E-2,-2.6108691E-2,5.529649E-2,2.1710714E-2,-4.682247E-2,-6.2173106E-2,5.436657E-2,2.8109786E-3,4.1006416E-2,7.3076844E-2,-9.042236E-2,-3.0697256E-2,5.967884E-2,-8.988734E-2],"split_indices":[0,0,1,0,3,0,3,1,1,0,0,3,3,1,1,3,0,3,3,1,1,1,1,1,1,3,0,0,3,1,0,0,0,0,0,0,0,0,0,0,0,0,0,0,0,0,0,0,0,0,0,0,0,0,0,0,0,0,0,0,0,0,0],"split_type":[0,0,0,0,0,0,0,0,0,0,0,0,0,0,0,0,0,0,0,0,0,0,0,0,0,0,0,0,0,0,0,0,0,0,0,0,0,0,0,0,0,0,0,0,0,0,0,0,0,0,0,0,0,0,0,0,0,0,0,0,0,0,0],"sum_hessian":[1.2814538E5,4.7962066E4,8.018331E4,3.6580625E4,1.1381441E4,7.5818625E4,4.3646924E3,2.8351906E4,8.228721E3,7.4512876E3,3.9301536E3,2.0555342E4,5.526328E4,4.0715393E3,2.93153E2,2.467926E4,3.6726455E3,5.6660674E3,2.5626536E3,4.6390312E3,2.812256E3,2.898839E3,1.0313143E3,7.8141836E3,1.2741157E4,1.4812256E3,5.378206E4,9.133536E2,3.1581855E3,1.9977217E2,9.338083E1,2.4260064E4,4.1919626E2,2.6127349E3,1.0599108E3,5.6598257E3,6.241366E0,1.5959839E3,9.666697E2,2.4598257E3,2.1792056E3,2.4930044E3,3.1925174E2,9.8836017E2,1.910479E3,8.9849E1,9.4146533E2,1.9555826E3,5.858601E3,4.0428333E3,8.698324E3,9.283058E2,5.5291986E2,1.1114316E4,4.2667742E4,4.4599228E2,4.673613E2,8.307134E2,2.3274722E3,9.629163E1,1.03480545E2,8.338601E1,9.994822E0],"tree_param":{"num_deleted":"0","num_feature":"5","num_nodes":"63","size_leaf_vector":"1"}},{"base_weights":[5.3610182E-3,1.3712792E0,-7.741992E-1,1.5078394E0,8.7828296E-1,-8.724782E-1,1.0869629E0,1.5552645E0,1.3422657E0,1.0097301E0,3.6270937E-1,-3.392131E-1,-1.0850067E0,1.1811962E0,-3.257526E-1,1.5742925E0,1.4227089E0,1.4745734E0,1.1140438E0,1.1744808E0,7.869935E-1,8.4903646E-1,2.2513668E-1,1.1837883E-1,-6.224108E-1,8.3827883E-1,-1.1403915E0,8.48761E-1,1.3697839E0,3.3087733E-1,-8.94666E-2,7.881383E-2,7.062858E-2,7.375316E-2,6.4912535E-2,7.383446E-2,-7.0820555E-2,6.1237913E-2,4.5442708E-2,6.510788E-2,4.9333684E-2,3.5272878E-2,6.7928635E-2,5.0542887E-2,-4.816058E-2,5.4227905E-3,5.1861502E-2,-3.079485E-2,1.8057873E-2,-4.877111E-2,-2.2280335E-2,5.5184204E-2,1.7479684E-2,-4.4823386E-2,-6.0211796E-2,6.1033465E-2,2.7614174E-2,1.4917438E-2,7.156747E-2,3.5284918E-2,-5.1073886E-2],"categories":[],"categories_nodes":[],"categories_segments":[],"categories_sizes":[],"default_left":[0,0,0,0,0,0,0,0,0,0,0,0,0,0,0,0,0,0,0,0,0,0,0,0,0,0,0,0,0,0,0,0,0,0,0,0,0,0,0,0,0,0,0,0,0,0,0,0,0,0,0,0,0,0,0,0,0,0,0,0,0],"id":9,"left_children":[1,3,5,7,9,11,13,15,17,19,21,23,25,27,29,31,33,35,37,39,41,43,45,47,49,51,53,55,57,59,-1,-1,-1,-1,-1,-1,-1,-1,-1,-1,-1,-1,-1,-1,-1,-1,-1,-1,-1,-1,-1,-1,-1,-1,-1,-1,-1,-1,-1,-1,-1],"loss_changes":[1.3492244E5,3.09825E3,1.4756492E4,2.810078E2,6.766045E2,8.68375E3,5.390825E2,6.842969E1,2.4095898E2,2.9114795E2,1.3568903E2,2.8299087E3,5.8370273E3,2.3667871E2,2.4452617E2,5.6367188E0,2.1069824E1,3.3180664E1,6.5961426E1,1.0837158E2,1.5689551E2,1.3219843E2,1.5002452E2,1.4885591E3,8.414697E2,1.9859204E2,8.282656E2,1.5102472E2,1.5913477E2,8.996393E1,0E0,0E0,0E0,0E0,0E0,0E0,0E0,0E0,0E0,0E0,0E0,0E0,0E0,0E0,0E0,0E0,0E0,0E0,0E0,0E0,0E0,0E0,0E0,0E0,0E0,0E0,0E0,0E0,0E0,0E0,0E0],"parents":[2147483647,0,0,1,1,2,2,3,3,4,4,5,5,6,6,7,7,8,8,9,9,10,10,11,11,12,12,13,13,14,14,15,15,16,16,17,17,18,18,19,19,20,20,21,21,22,22,23,23,24,24,25,25,26,26,27,27,28,28,29,29],"right_children":[2,4,6,8,10,12,14,16,18,20,22,24,26,28,30,32,34,36,38,40,42,44,46,48,50,52,54,56,58,60,-1,-1,-1,-1,-1,-1,-1,-1,-1,-1,-1,-1,-1,-1,-1,-1,-1,-1,-1,-1,-1,-1,-1,-1,-1,-1,-1,-1,-1,-1,-1],"split_conditions":[-9.970777E-1,-1.4114286E0,1.9346485E0,-2.0728428E0,4.5394102E-1,-3.0432767E-1,1.4986327E0,1.7145021E0,2.0181225E-1,-1.1764821E0,-6.349938E-1,-1.9168901E-1,-6.2663E0,-3.2798928E-1,-4.830542E-2,6.5486865E0,-3.4948838E0,5.7667294E0,2.1042895E-1,-7.15172E-2,1.9346485E0,-1.0622983E0,1.9346485E0,-3.456422E-1,-3.6193144E-1,-8.947239E0,-3.2622024E-2,-1.4790857E-1,2.1162417E0,5.440536E0,-8.94666E-2,7.881383E-2,7.062858E-2,7.375316E-2,6.4912535E-2,7.383446E-2,-7.0820555E-2,6.1237913E-2,4.5442708E-2,6.510788E-2,4.9333684E-2,3.5272878E-2,6.7928635E-2,5.0542887E-2,-4.816058E-2,5.4227905E-3,5.1861502E-2,-3.079485E-2,1.8057873E-2,-4.877111E-2,-2.2280335E-2,5.5184204E-2,1.7479684E-2,-4.4823386E-2,-6.0211796E-2,6.1033465E-2,2.7614174E-2,1.4917438E-2,7.156747E-2,3.5284918E-2,-5.1073886E-2],"split_indices":[0,0,1,0,3,0,3,1,1,0,1,3,3,3,0,3,0,3,3,1,1,0,1,1,1,3,0,0,1,3,0,0,0,0,0,0,0,0,0,0,0,0,0,0,0,0,0,0,0,0,0,0,0,0,0,0,0,0,0,0,0],"split_type":[0,0,0,0,0,0,0,0,0,0,0,0,0,0,0,0,0,0,0,0,0,0,0,0,0,0,0,0,0,0,0,0,0,0,0,0,0,0,0,0,0,0,0,0,0,0,0,0,0,0,0,0,0,0,0,0,0,0,0,0,0],"sum_hessian":[1.2670767E5,4.6038992E4,8.066868E4,3.605084E4,9.988155E3,7.662312E4,4.045565E3,2.801746E4,8.033378E3,7.958223E3,2.029932E3,2.1836004E4,5.4787113E4,3.7927393E3,2.5282565E2,2.4490951E4,3.5265095E3,5.0818213E3,2.9515566E3,4.5721123E3,3.3861108E3,4.464687E2,1.5834633E3,8.347944E3,1.348806E4,1.5331453E3,5.325397E4,1.3747979E3,2.4179414E3,1.7505966E2,7.776599E1,2.4185502E4,3.0544864E2,2.4746694E3,1.05184E3,5.0785938E3,3.2275116E0,1.9139025E3,1.0376542E3,2.7182388E3,1.8538737E3,2.9653384E3,4.2077246E2,4.102761E2,3.6192623E1,1.3855256E3,1.979376E2,2.0739165E3,6.274028E3,4.499576E3,8.988483E3,9.92733E2,5.404123E2,1.1050281E4,4.2203688E4,6.0843976E2,7.663581E2,1.3170486E2,2.2862366E3,1.3744371E2,3.7615955E1],"tree_param":{"num_deleted":"0","num_feature":"5","num_nodes":"61","size_leaf_vector":"1"}},{"base_weights":[1.4626822E-3,-9.5889255E-2,1.1464088E0,8.8067305E-1,-1.1426534E-1,7.6572764E-1,1.2468569E0,2.5270817E-1,1.1930584E0,6.254698E-2,-2.0091182E-1,8.1474966E-1,-8.346225E-1,9.525295E-1,1.2794483E0,8.927998E-1,7.474291E-3,1.3519545E0,9.291648E-1,2.2635633E-1,-9.72253E-2,-1.3240905E-1,-3.36667E-1,3.4275487E-1,9.046832E-1,7.4569887E-1,-1.2076126E0,7.3970115E-1,1.1955044E0,1.3169363E0,1.0190094E0,5.6901373E-2,-1.4020204E-2,-9.6029334E-2,3.0221257E-3,7.04787E-2,6.452077E-2,2.0791255E-2,5.351236E-2,3.3112843E-2,1.0013017E-2,-2.675492E-3,-1.8813066E-2,-2.0006517E-2,-5.015528E-3,-1.568652E-2,-2.4950026E-2,2.1357415E-2,-8.206411E-2,5.666252E-2,3.2257635E-2,-6.932533E-2,7.127495E-2,-8.719458E-2,3.3947278E-2,2.5318975E-2,4.849643E-2,6.570432E-2,5.266884E-2,5.7644706E-2,6.8314366E-2,2.9507065E-2,6.284336E-2],"categories":[],"categories_nodes":[],"categories_segments":[],"categories_sizes":[],"default_left":[0,0,0,0,0,0,0,0,0,0,0,0,0,0,0,0,0,0,0,0,0,0,0,0,0,0,0,0,0,0,0,0,0,0,0,0,0,0,0,0,0,0,0,0,0,0,0,0,0,0,0,0,0,0,0,0,0,0,0,0,0,0,0],"id":10,"left_children":[1,3,5,7,9,11,13,15,17,19,21,23,25,27,29,31,33,35,37,39,41,43,45,47,49,51,53,55,57,59,61,-1,-1,-1,-1,-1,-1,-1,-1,-1,-1,-1,-1,-1,-1,-1,-1,-1,-1,-1,-1,-1,-1,-1,-1,-1,-1,-1,-1,-1,-1,-1,-1],"loss_changes":[1.3893069E4,2.0615889E3,3.7254492E2,4.1592944E2,1.7274346E3,1.6086609E2,7.290137E1,1.1083751E2,5.814734E1,9.705818E2,7.0367725E2,8.380713E1,3.696291E1,3.9151794E1,6.654785E1,5.6591064E1,5.2358418E1,1.3087158E0,3.834662E1,2.081571E2,2.2898679E2,4.3217047E2,9.433472E1,5.4074356E1,9.79707E1,1.9806133E1,5.1648216E1,2.1819351E1,4.6811523E0,4.760742E1,8.89635E1,0E0,0E0,0E0,0E0,0E0,0E0,0E0,0E0,0E0,0E0,0E0,0E0,0E0,0E0,0E0,0E0,0E0,0E0,0E0,0E0,0E0,0E0,0E0,0E0,0E0,0E0,0E0,0E0,0E0,0E0,0E0,0E0],"parents":[2147483647,0,0,1,1,2,2,3,3,4,4,5,5,6,6,7,7,8,8,9,9,10,10,11,11,12,12,13,13,14,14,15,15,16,16,17,17,18,18,19,19,20,20,21,21,22,22,23,23,24,24,25,25,26,26,27,27,28,28,29,29,30,30],"right_children":[2,4,6,8,10,12,14,16,18,20,22,24,26,28,30,32,34,36,38,40,42,44,46,48,50,52,54,56,58,60,62,-1,-1,-1,-1,-1,-1,-1,-1,-1,-1,-1,-1,-1,-1,-1,-1,-1,-1,-1,-1,-1,-1,-1,-1,-1,-1,-1,-1,-1,-1,-1,-1],"split_conditions":[1.811741E0,-6.2663E0,2.1162417E0,-1.4540898E1,-4.2857912E-1,1.287635E1,-1.5054926E0,2.3107699E-1,-8.947239E0,-4.0482576E-3,2.1713136E-1,-1.3210168E0,-5.1805363E0,2.8490016E0,1.4986327E0,-1.9594734E1,3.3065236E-1,-6.505674E-1,-2.1183841E0,-1.2989327E0,-5.382614E-1,-2.7008624E0,2.2954154E0,2.9427881E0,-2.2967829E-1,-5.2833242E0,8.825281E0,-7.4353886E-1,-7.2220607E0,-4.352547E-1,2.8490016E0,5.6901373E-2,-1.4020204E-2,-9.6029334E-2,3.0221257E-3,7.04787E-2,6.452077E-2,2.0791255E-2,5.351236E-2,3.3112843E-2,1.0013017E-2,-2.675492E-3,-1.8813066E-2,-2.0006517E-2,-5.015528E-3,-1.568652E-2,-2.4950026E-2,2.1357415E-2,-8.206411E-2,5.666252E-2,3.2257635E-2,-6.932533E-2,7.127495E-2,-8.719458E-2,3.3947278E-2,2.5318975E-2,4.849643E-2,6.570432E-2,5.266884E-2,5.7644706E-2,6.8314366E-2,2.9507065E-2,6.284336E-2],"split_indices":[1,3,1,2,1,2,2,1,3,3,3,2,3,1,3,2,1,2,2,1,1,2,2,3,3,3,3,3,2,3,1,0,0,0,0,0,0,0,0,0,0,0,0,0,0,0,0,0,0,0,0,0,0,0,0,0,0,0,0,0,0,0,0],"split_type":[0,0,0,0,0,0,0,0,0,0,0,0,0,0,0,0,0,0,0,0,0,0,0,0,0,0,0,0,0,0,0,0,0,0,0,0,0,0,0,0,0,0,0,0,0,0,0,0,0,0,0,0,0,0,0,0,0,0,0,0,0,0,0],"sum_hessian":[1.2464121E5,1.14874625E5,9.766589E3,2.1208184E3,1.12753805E5,2.0408262E3,7.725762E3,7.0513916E2,1.4156793E3,3.7082625E4,7.567118E4,1.9806459E3,6.018034E1,7.73215E2,6.9525474E3,1.9459108E2,5.1054807E2,8.8105426E2,5.3462506E2,1.8309783E4,1.8772844E4,5.0294355E4,2.537682E4,3.177614E2,1.6628844E3,1.130079E1,4.887955E1,4.1433347E2,3.588816E2,6.0741675E3,8.783798E2,1.6097371E2,3.3617367E1,1.2708144E1,4.978399E2,4.4370517E2,4.373491E2,1.1610712E2,4.1851797E2,1.0328553E3,1.7276928E4,1.6231163E4,2.5416802E3,5.383251E3,4.4911105E4,2.2237717E4,3.1391033E3,3.0554922E2,1.2212194E1,8.82396E2,7.8048846E2,2.4806395E0,8.82015E0,3.811927E1,1.076028E1,2.0737297E2,2.069605E2,1.9115149E2,1.677301E2,1.4103982E3,4.663769E3,3.1460828E2,5.6377155E2],"tree_param":{"num_deleted":"0","num_feature":"5","num_nodes":"63","size_leaf_vector":"1"}},{"base_weights":[-6.3249195E-4,1.324641E0,-7.454962E-1,1.4629692E0,8.25629E-1,-8.3808964E-1,1.0143259E0,1.5109937E0,1.2994999E0,1.0019015E0,3.9905763E-1,-2.250322E-1,-1.0005884E0,1.1017531E0,-2.652824E-1,1.5314908E0,1.358795E0,1.4120206E0,1.0489286E0,1.1460061E0,8.105185E-1,9.1930264E-1,2.2456034E-1,-7.6987207E-1,-1.8261352E-3,7.477537E-1,-1.0473311E0,7.734876E-1,1.2879429E0,3.6228585E-1,-8.6969644E-2,7.667794E-2,6.784389E-2,7.0110284E-2,5.843667E-2,7.080091E-2,-8.090842E-2,5.4873955E-2,9.972782E-3,6.480494E-2,4.9062714E-2,3.725549E-2,6.424564E-2,5.4410886E-2,-9.067892E-2,4.5686048E-3,5.026711E-2,4.733462E-2,-4.1328542E-2,1.7312689E-2,-1.905959E-2,-3.415901E-3,5.431766E-2,-3.9688975E-2,-5.7416804E-2,5.796007E-2,2.3285195E-2,1.41743785E-2,6.728842E-2,4.0622883E-2,-6.197483E-2],"categories":[],"categories_nodes":[],"categories_segments":[],"categories_sizes":[],"default_left":[0,0,0,0,0,0,0,0,0,0,0,0,0,0,0,0,0,0,0,0,0,0,0,0,0,0,0,0,0,0,0,0,0,0,0,0,0,0,0,0,0,0,0,0,0,0,0,0,0,0,0,0,0,0,0,0,0,0,0,0,0],"id":11,"left_children":[1,3,5,7,9,11,13,15,17,19,21,23,25,27,29,31,33,35,37,39,41,43,45,47,49,51,53,55,57,59,-1,-1,-1,-1,-1,-1,-1,-1,-1,-1,-1,-1,-1,-1,-1,-1,-1,-1,-1,-1,-1,-1,-1,-1,-1,-1,-1,-1,-1,-1,-1],"loss_changes":[1.2252478E5,3.0815703E3,1.2948676E4,2.7253906E2,7.2861816E2,7.520035E3,4.446814E2,8.220703E1,2.2257715E2,1.8825635E2,2.573027E2,1.9236594E3,4.8772695E3,2.2627246E2,2.3639157E2,6.5117188E0,2.4894043E1,6.868848E1,1.01509766E2,9.543457E1,9.0577515E1,3.30714E2,2.2093562E2,4.4819287E2,1.4820055E3,4.2958435E2,1.4874883E3,1.5952112E2,1.3734277E2,1.3049619E2,0E0,0E0,0E0,0E0,0E0,0E0,0E0,0E0,0E0,0E0,0E0,0E0,0E0,0E0,0E0,0E0,0E0,0E0,0E0,0E0,0E0,0E0,0E0,0E0,0E0,0E0,0E0,0E0,0E0,0E0,0E0],"parents":[2147483647,0,0,1,1,2,2,3,3,4,4,5,5,6,6,7,7,8,8,9,9,10,10,11,11,12,12,13,13,14,14,15,15,16,16,17,17,18,18,19,19,20,20,21,21,22,22,23,23,24,24,25,25,26,26,27,27,28,28,29,29],"right_children":[2,4,6,8,10,12,14,16,18,20,22,24,26,28,30,32,34,36,38,40,42,44,46,48,50,52,54,56,58,60,-1,-1,-1,-1,-1,-1,-1,-1,-1,-1,-1,-1,-1,-1,-1,-1,-1,-1,-1,-1,-1,-1,-1,-1,-1,-1,-1,-1,-1,-1,-1],"split_conditions":[-9.970777E-1,-1.4114286E0,1.9346485E0,-2.0728428E0,2.6184988E-1,-4.4782853E-1,1.4986327E0,1.7145021E0,4.6924123E-1,-1.1764821E0,-6.985916E-1,-3.456422E-1,-6.2663E0,-3.2798928E-1,-4.830542E-2,6.5486865E0,-2.7808962E0,5.7667294E0,5.1925735E0,-2.7848056E-1,1.9346485E0,-1.0622983E0,1.811741E0,-1.3254902E0,1.8310992E-2,-1.5357876E1,-3.2622024E-2,-1.4790857E-1,2.1162417E0,5.901044E-1,-8.6969644E-2,7.667794E-2,6.784389E-2,7.0110284E-2,5.843667E-2,7.080091E-2,-8.090842E-2,5.4873955E-2,9.972782E-3,6.480494E-2,4.9062714E-2,3.725549E-2,6.424564E-2,5.4410886E-2,-9.067892E-2,4.5686048E-3,5.026711E-2,4.733462E-2,-4.1328542E-2,1.7312689E-2,-1.905959E-2,-3.415901E-3,5.431766E-2,-3.9688975E-2,-5.7416804E-2,5.796007E-2,2.3285195E-2,1.41743785E-2,6.728842E-2,4.0622883E-2,-6.197483E-2],"split_indices":[0,0,1,0,3,0,3,1,1,0,1,1,3,3,0,3,0,3,3,1,1,0,1,1,3,2,0,0,1,2,0,0,0,0,0,0,0,0,0,0,0,0,0,0,0,0,0,0,0,0,0,0,0,0,0,0,0,0,0,0,0],"split_type":[0,0,0,0,0,0,0,0,0,0,0,0,0,0,0,0,0,0,0,0,0,0,0,0,0,0,0,0,0,0,0,0,0,0,0,0,0,0,0,0,0,0,0,0,0,0,0,0,0,0,0,0,0,0,0,0,0,0,0,0,0],"sum_hessian":[1.24117945E5,4.465906E4,7.945889E4,3.496475E4,9.694309E3,7.548762E4,3.9712734E3,2.7018834E4,7.945916E3,6.858722E3,2.8355864E3,1.5817077E4,5.967054E4,3.717425E3,2.5384831E2,2.380402E4,3.214814E3,5.480309E3,2.4656072E3,3.9097979E3,2.9489246E3,7.111376E2,2.1244487E3,4.5959766E3,1.1221102E4,1.5533859E3,5.8117152E4,1.3472626E3,2.3701626E3,1.7857738E2,7.5270935E1,2.351772E4,2.8630026E2,2.6118774E3,6.0293646E2,5.4736206E3,6.688251E0,2.3320312E3,1.3357594E2,2.0423246E3,1.8674733E3,2.5938577E3,3.5506674E2,6.7030865E2,4.082893E1,1.8158179E3,3.0863092E2,1.4645102E2,4.4495254E3,5.8518926E3,5.3692085E3,4.557539E2,1.097632E3,1.6558756E4,4.15584E4,5.96706E2,7.505566E2,1.293419E2,2.2408208E3,1.3978452E2,3.8792854E1],"tree_param":{"num_deleted":"0","num_feature":"5","num_nodes":"61","size_leaf_vector":"1"}},{"base_weights":[-5.612321E-4,-8.874322E-2,1.0702915E0,8.3416855E-1,-1.0639867E-1,8.188111E-1,1.2262845E0,2.636669E-1,1.1028079E0,7.747871E-2,-1.7787938E-1,8.517403E-1,8.73758E-2,1.0201038E0,1.2777752E0,7.68523E-1,-1.1812049E-1,1.2794124E0,7.9211307E-1,2.240636E-1,-4.1595206E-2,-1.0878569E-1,-3.1511444E-1,4.7440636E-1,9.262655E-1,-9.167631E-2,3.5623652E-1,1.2131432E0,8.0574304E-1,1.3211302E0,1.0694519E0,4.9279705E-2,8.302494E-3,-5.371423E-4,-9.582285E-2,5.1790733E-2,6.537748E-2,-8.849551E-2,4.099739E-2,4.456698E-2,1.0221483E-2,7.887676E-3,-3.5822957E-3,-6.2802257E-3,1.586145E-2,-5.657738E-3,-1.7260496E-2,2.629425E-2,-3.2354724E-2,4.9911723E-2,2.7896335E-2,-1.7106859E-2,4.4198327E-2,5.0993353E-2,6.51991E-2,1.3522665E-2,4.9696002E-2,-6.2334514E-3,6.627898E-2,3.4214962E-2,5.9342336E-2],"categories":[],"categories_nodes":[],"categories_segments":[],"categories_sizes":[],"default_left":[0,0,0,0,0,0,0,0,0,0,0,0,0,0,0,0,0,0,0,0,0,0,0,0,0,0,0,0,0,0,0,0,0,0,0,0,0,0,0,0,0,0,0,0,0,0,0,0,0,0,0,0,0,0,0,0,0,0,0,0,0],"id":12,"left_children":[1,3,5,7,9,11,13,15,17,19,21,23,25,27,29,31,33,35,37,39,41,43,45,47,49,-1,51,53,55,57,59,-1,-1,-1,-1,-1,-1,-1,-1,-1,-1,-1,-1,-1,-1,-1,-1,-1,-1,-1,-1,-1,-1,-1,-1,-1,-1,-1,-1,-1,-1],"loss_changes":[1.157589E4,1.8456022E3,3.64875E2,3.2555835E2,1.4607405E3,8.599634E1,5.978418E1,1.3153815E2,7.828308E1,5.430178E2,7.587805E2,9.571948E1,8.073689E1,4.6808838E1,4.013672E1,3.825763E1,7.5130356E1,4.9500732E0,3.898871E1,1.8250629E2,1.0284971E2,3.814306E2,1.6284106E2,3.301886E1,7.511182E1,0E0,5.0743553E1,9.303528E0,5.514917E1,2.46333E1,3.5256653E1,0E0,0E0,0E0,0E0,0E0,0E0,0E0,0E0,0E0,0E0,0E0,0E0,0E0,0E0,0E0,0E0,0E0,0E0,0E0,0E0,0E0,0E0,0E0,0E0,0E0,0E0,0E0,0E0,0E0,0E0],"parents":[2147483647,0,0,1,1,2,2,3,3,4,4,5,5,6,6,7,7,8,8,9,9,10,10,11,11,12,12,13,13,14,14,15,15,16,16,17,17,18,18,19,19,20,20,21,21,22,22,23,23,24,24,26,26,27,27,28,28,29,29,30,30],"right_children":[2,4,6,8,10,12,14,16,18,20,22,24,26,28,30,32,34,36,38,40,42,44,46,48,50,-1,52,54,56,58,60,-1,-1,-1,-1,-1,-1,-1,-1,-1,-1,-1,-1,-1,-1,-1,-1,-1,-1,-1,-1,-1,-1,-1,-1,-1,-1,-1,-1,-1,-1],"split_conditions":[1.811741E0,-6.2663E0,2.3932314E0,-1.5357876E1,-5.382614E-1,1.287635E1,-4.8659518E-1,4.2417198E-1,-8.947239E0,-4.6514746E-2,2.1713136E-1,-1.3210168E0,1.5667998E1,-4.042922E0,1.269437E0,-1.9594734E1,-1.612964E1,-1.2702406E1,-1.4540898E1,-1.3577718E0,-4.252383E-1,1.406172E0,-5.7494324E-1,3.474531E0,1.6603754E0,-9.167631E-2,2.1162417E0,2.8490016E0,2.8490016E0,-3.5406265E0,2.8490016E0,4.9279705E-2,8.302494E-3,-5.371423E-4,-9.582285E-2,5.1790733E-2,6.537748E-2,-8.849551E-2,4.099739E-2,4.456698E-2,1.0221483E-2,7.887676E-3,-3.5822957E-3,-6.2802257E-3,1.586145E-2,-5.657738E-3,-1.7260496E-2,2.629425E-2,-3.2354724E-2,4.9911723E-2,2.7896335E-2,-1.7106859E-2,4.4198327E-2,5.0993353E-2,6.51991E-2,1.3522665E-2,4.9696002E-2,-6.2334514E-3,6.627898E-2,3.4214962E-2,5.9342336E-2],"split_indices":[1,3,1,2,1,2,3,1,3,3,3,2,2,3,3,2,2,2,2,1,2,1,2,3,3,0,1,1,1,2,1,0,0,0,0,0,0,0,0,0,0,0,0,0,0,0,0,0,0,0,0,0,0,0,0,0,0,0,0,0,0],"split_type":[0,0,0,0,0,0,0,0,0,0,0,0,0,0,0,0,0,0,0,0,0,0,0,0,0,0,0,0,0,0,0,0,0,0,0,0,0,0,0,0,0,0,0,0,0,0,0,0,0,0,0,0,0,0,0,0,0,0,0,0,0],"sum_hessian":[1.2258509E5,1.1325939E5,9.325704E3,2.125132E3,1.1113426E5,3.5725488E3,5.753155E3,6.8096594E2,1.4441663E3,3.1109057E4,8.00252E4,3.4184846E3,1.5406427E2,1.1538174E3,4.5993374E3,2.9278677E2,3.8817917E2,9.18791E2,5.253752E2,1.3943343E4,1.7165713E4,5.3228207E4,2.6796996E4,5.650261E2,2.8534585E3,1.8201591E1,1.3586269E2,6.0464966E2,5.491678E2,3.8026182E3,7.967194E2,2.1476942E2,7.801735E1,3.6725647E2,2.09227E1,9.9052925E1,8.197381E2,4.9738584E0,5.204013E2,3.9727362E2,1.3546069E4,2.2481057E3,1.4917607E4,5.1207277E4,2.0209299E3,3.475947E3,2.3321049E4,5.407366E2,2.428956E1,2.3856257E3,4.6783276E2,5.8628326E1,7.723436E1,1.9723096E2,4.074187E2,1.4347498E2,4.056928E2,1.1583467E1,3.7910347E3,1.8770837E2,6.0901105E2],"tree_param":{"num_deleted":"0","num_feature":"5","num_nodes":"61","size_leaf_vector":"1"}},{"base_weights":[3.0803126E-3,1.2850236E0,-7.095332E-1,1.4206774E0,8.1573987E-1,-1.8902917E-1,-9.294101E-1,1.4698942E0,1.2544086E0,9.3336964E-1,3.624851E-1,1.9188973E-1,-4.252298E-1,7.156043E-1,-9.783829E-1,1.4834368E0,1.4060614E0,1.2789408E0,7.029023E-1,1.0631881E0,6.4640576E-1,3.8818872E-1,-9.610681E-2,-2.5442296E-1,3.077027E-1,-2.255843E-1,-6.637486E-1,-7.956712E-2,1.0807667E0,-8.721435E-1,-1.1822819E0,6.889977E-2,7.428875E-2,7.1547076E-2,3.3000287E-2,6.633481E-2,5.8929842E-2,5.1539153E-2,2.046806E-2,3.5781767E-2,5.4908335E-2,4.3134537E-2,2.67137E-2,-9.8062925E-2,2.005803E-2,1.9934123E-2,-2.7731095E-2,3.237399E-2,5.365056E-3,3.6906486E-4,-1.9803902E-2,-2.2197088E-2,-4.132555E-2,-9.729222E-3,6.674923E-2,6.5000616E-2,2.162395E-2,-2.92959E-2,-4.775341E-2,-6.553008E-2,-5.182295E-2],"categories":[],"categories_nodes":[],"categories_segments":[],"categories_sizes":[],"default_left":[0,0,0,0,0,0,0,0,0,0,0,0,0,0,0,0,0,0,0,0,0,0,0,0,0,0,0,0,0,0,0,0,0,0,0,0,0,0,0,0,0,0,0,0,0,0,0,0,0,0,0,0,0,0,0,0,0,0,0,0,0],"id":13,"left_children":[1,3,5,7,9,11,13,15,17,19,21,23,25,27,29,31,33,35,37,39,41,43,-1,45,47,49,51,53,55,57,59,-1,-1,-1,-1,-1,-1,-1,-1,-1,-1,-1,-1,-1,-1,-1,-1,-1,-1,-1,-1,-1,-1,-1,-1,-1,-1,-1,-1,-1,-1],"loss_changes":[1.1172793E5,2.7805703E3,8.996148E3,2.7553906E2,5.222168E2,2.1005813E3,4.452676E3,2.0519531E1,1.0393848E2,2.8917627E2,1.19432556E2,4.6198114E2,6.8607104E2,4.6414893E2,1.1614648E3,3.2617188E0,8.436328E1,3.398047E1,3.1553146E1,6.432471E1,5.8378662E1,6.172403E1,0E0,3.6129785E2,4.8308173E2,3.1164166E2,2.3452368E2,8.224182E1,1.5511804E2,8.369512E2,3.4257422E2,0E0,0E0,0E0,0E0,0E0,0E0,0E0,0E0,0E0,0E0,0E0,0E0,0E0,0E0,0E0,0E0,0E0,0E0,0E0,0E0,0E0,0E0,0E0,0E0,0E0,0E0,0E0,0E0,0E0,0E0],"parents":[2147483647,0,0,1,1,2,2,3,3,4,4,5,5,6,6,7,7,8,8,9,9,10,10,11,11,12,12,13,13,14,14,15,15,16,16,17,17,18,18,19,19,20,20,21,21,23,23,24,24,25,25,26,26,27,27,28,28,29,29,30,30],"right_children":[2,4,6,8,10,12,14,16,18,20,22,24,26,28,30,32,34,36,38,40,42,44,-1,46,48,50,52,54,56,58,60,-1,-1,-1,-1,-1,-1,-1,-1,-1,-1,-1,-1,-1,-1,-1,-1,-1,-1,-1,-1,-1,-1,-1,-1,-1,-1,-1,-1,-1,-1],"split_conditions":[-9.970777E-1,-1.4114286E0,-3.0432767E-1,-2.0728428E0,4.5394102E-1,-1.9168901E-1,-6.2663E0,-2.7808962E0,4.721153E0,-1.1328012E0,1.8134272E1,-4.208713E0,-5.6356174E-1,-1.2702406E1,6.8219614E-1,-6.2663E0,4.9959784E0,1.6576408E-1,-1.7087035E0,-3.8266757E0,-4.5978552E-1,-1.2702406E1,-9.610681E-2,-5.5223594E0,-7.8597856E-1,2.1042895E-1,2.1713136E-1,2.0120976E0,-8.947239E0,-5.871314E-1,-1.8278821E-1,6.889977E-2,7.428875E-2,7.1547076E-2,3.3000287E-2,6.633481E-2,5.8929842E-2,5.1539153E-2,2.046806E-2,3.5781767E-2,5.4908335E-2,4.3134537E-2,2.67137E-2,-9.8062925E-2,2.005803E-2,1.9934123E-2,-2.7731095E-2,3.237399E-2,5.365056E-3,3.6906486E-4,-1.9803902E-2,-2.2197088E-2,-4.132555E-2,-9.729222E-3,6.674923E-2,6.5000616E-2,2.162395E-2,-2.92959E-2,-4.775341E-2,-6.553008E-2,-5.182295E-2],"split_indices":[0,0,0,0,3,3,3,0,3,0,2,3,0,2,0,3,3,3,0,3,3,2,0,3,3,3,3,0,3,3,3,0,0,0,0,0,0,0,0,0,0,0,0,0,0,0,0,0,0,0,0,0,0,0,0,0,0,0,0,0,0],"split_type":[0,0,0,0,0,0,0,0,0,0,0,0,0,0,0,0,0,0,0,0,0,0,0,0,0,0,0,0,0,0,0,0,0,0,0,0,0,0,0,0,0,0,0,0,0,0,0,0,0,0,0,0,0,0,0,0,0,0,0,0,0],"sum_hessian":[1.2230151E5,4.369549E4,7.860602E4,3.389545E4,9.80004E3,2.3344816E4,5.5261203E4,2.6147707E4,7.7477417E3,7.779918E3,2.0201215E3,8.9352295E3,1.4409587E4,1.5971963E3,5.3664008E4,2.155282E4,4.5948867E3,7.416521E3,3.3122104E2,5.354784E3,2.425134E3,1.9984674E3,2.1654102E1,1.8406501E3,7.094579E3,7.845052E3,6.564535E3,5.0289114E2,1.0943052E3,3.528461E4,1.8379396E4,4.8034088E2,2.107248E4,4.44571E3,1.491771E2,5.0167437E3,2.3997773E3,1.5527254E2,1.7594849E2,4.9160382E2,4.86318E3,8.2573157E2,1.5994026E3,1.0148743E1,1.9883187E3,5.795239E2,1.2611262E3,2.6311992E3,4.46338E3,3.315564E3,4.529488E3,2.7944385E3,3.7700967E3,4.6587338E2,3.7017765E1,8.1699786E2,2.773073E2,7.928027E3,2.7356584E4,9.772185E3,8.607211E3],"tree_param":{"num_deleted":"0","num_feature":"5","num_nodes":"61","size_leaf_vector":"1"}},{"base_weights":[7.1152635E-3,1.2084166E0,-6.948202E-1,1.383797E0,6.9933313E-1,-7.83126E-1,8.55433E-1,1.4336355E0,1.2144176E0,8.700992E-1,3.828035E-1,-2.875222E-1,-9.4160414E-1,9.631033E-1,-6.6498977E-1,1.4549841E0,1.2771348E0,1.3345004E0,9.4941854E-1,1.0543754E0,6.1509764E-1,5.180936E-1,-8.257692E-2,-8.4711885E-1,-4.844734E-2,7.1296453E-1,-9.8773444E-1,1.1171365E0,4.5470312E-1,-1.2413664E0,6.9935244E-1,7.2854E-2,6.407167E-2,6.6912234E-2,5.653456E-2,6.691923E-2,-7.839262E-2,5.472378E-2,3.7772108E-2,6.0083207E-2,4.376705E-2,2.6496176E-2,6.0581382E-2,4.0657688E-2,1.9458612E-2,-8.440371E-2,4.1762018E-3,-4.37383E-3,-4.910394E-2,1.5341014E-2,-1.9255957E-2,4.6470832E-2,1.8350108E-2,-3.7414607E-2,-5.3166468E-2,3.84378E-2,6.140081E-2,9.298729E-3,5.25041E-2,5.6984305E-2,-6.880966E-2,5.1507752E-2,-8.335444E-2],"categories":[],"categories_nodes":[],"categories_segments":[],"categories_sizes":[],"default_left":[0,0,0,0,0,0,0,0,0,0,0,0,0,0,0,0,0,0,0,0,0,0,0,0,0,0,0,0,0,0,0,0,0,0,0,0,0,0,0,0,0,0,0,0,0,0,0,0,0,0,0,0,0,0,0,0,0,0,0,0,0,0,0],"id":14,"left_children":[1,3,5,7,9,11,13,15,17,19,21,23,25,27,29,31,33,35,37,39,41,43,45,47,49,51,53,55,57,59,61,-1,-1,-1,-1,-1,-1,-1,-1,-1,-1,-1,-1,-1,-1,-1,-1,-1,-1,-1,-1,-1,-1,-1,-1,-1,-1,-1,-1,-1,-1,-1,-1],"loss_changes":[1.0211157E5,3.9865312E3,1.0464168E4,2.7866797E2,6.183286E2,5.6795234E3,6.7504834E2,8.386719E1,2.3924805E2,3.4867334E2,2.5268964E2,2.344245E3,4.1828438E3,3.008025E2,2.1557741E2,6.34375E0,2.6124023E1,6.0706055E1,6.5589355E1,1.12706055E2,1.5792688E2,1.17951355E2,2.4138991E2,5.376592E2,1.4687345E3,1.109978E2,9.6410547E2,1.1309741E2,1.4321846E2,6.330487E1,6.569702E1,0E0,0E0,0E0,0E0,0E0,0E0,0E0,0E0,0E0,0E0,0E0,0E0,0E0,0E0,0E0,0E0,0E0,0E0,0E0,0E0,0E0,0E0,0E0,0E0,0E0,0E0,0E0,0E0,0E0,0E0,0E0,0E0],"parents":[2147483647,0,0,1,1,2,2,3,3,4,4,5,5,6,6,7,7,8,8,9,9,10,10,11,11,12,12,13,13,14,14,15,15,16,16,17,17,18,18,19,19,20,20,21,21,22,22,23,23,24,24,25,25,26,26,27,27,28,28,29,29,30,30],"right_children":[2,4,6,8,10,12,14,16,18,20,22,24,26,28,30,32,34,36,38,40,42,44,46,48,50,52,54,56,58,60,62,-1,-1,-1,-1,-1,-1,-1,-1,-1,-1,-1,-1,-1,-1,-1,-1,-1,-1,-1,-1,-1,-1,-1,-1,-1,-1,-1,-1,-1,-1,-1,-1],"split_conditions":[-9.2188495E-1,-1.4114286E0,1.811741E0,-2.0728428E0,1.8581769E-1,-3.6395133E-1,1.6603754E0,1.7145021E0,4.6924123E-1,-1.1328012E0,-1.0276172E0,-3.456422E-1,-6.2663E0,3.69051E-1,2.8490016E0,6.5486865E0,-3.4948838E0,5.7667294E0,8.310992E-2,-1.4337713E-1,1.9346485E0,-4.8533553E-1,-6.4359313E-1,-8.1909645E-1,-5.3217158E-2,-8.947239E0,-4.0441602E-2,-7.4353886E-1,3.6193028E-2,-8.755123E-1,-1.7859077E-1,7.2854E-2,6.407167E-2,6.6912234E-2,5.653456E-2,6.691923E-2,-7.839262E-2,5.472378E-2,3.7772108E-2,6.0083207E-2,4.376705E-2,2.6496176E-2,6.0581382E-2,4.0657688E-2,1.9458612E-2,-8.440371E-2,4.1762018E-3,-4.37383E-3,-4.910394E-2,1.5341014E-2,-1.9255957E-2,4.6470832E-2,1.8350108E-2,-3.7414607E-2,-5.3166468E-2,3.84378E-2,6.140081E-2,9.298729E-3,5.25041E-2,5.6984305E-2,-6.880966E-2,5.1507752E-2,-8.335444E-2],"split_indices":[0,0,1,0,3,0,3,1,1,0,0,1,3,0,1,3,0,3,3,1,1,1,1,0,3,3,0,3,3,0,0,0,0,0,0,0,0,0,0,0,0,0,0,0,0,0,0,0,0,0,0,0,0,0,0,0,0,0,0,0,0,0,0],"split_type":[0,0,0,0,0,0,0,0,0,0,0,0,0,0,0,0,0,0,0,0,0,0,0,0,0,0,0,0,0,0,0,0,0,0,0,0,0,0,0,0,0,0,0,0,0,0,0,0,0,0,0,0,0,0,0,0,0,0,0,0,0,0,0],"sum_hessian":[1.210929E5,4.4660176E4,7.643272E4,3.3215605E4,1.1444572E4,7.231405E4,4.1186704E3,2.5658387E4,7.557217E3,7.4328438E3,4.0117285E3,1.7521725E4,5.4792324E4,3.8466338E3,2.7203677E2,2.2571127E4,3.0872595E3,5.1978184E3,2.3593987E3,4.312959E3,3.119885E3,3.108072E3,9.036565E2,5.244203E3,1.22775205E4,1.4858126E3,5.330651E4,2.9512712E3,8.953623E2,1.9130759E2,8.0729195E1,2.2294494E4,2.7663348E2,2.1725361E3,9.147235E2,5.1914097E3,6.408753E0,1.3472628E3,1.0121359E3,2.3631353E3,1.9498237E3,2.7317297E3,3.8815512E2,9.4346716E2,2.1646047E3,8.3865654E1,8.1979083E2,7.9139044E2,4.4528125E3,5.9738247E3,6.3036963E3,9.129421E2,5.7287054E2,1.2793798E4,4.0512715E4,7.1444415E2,2.2368271E3,6.1781805E2,2.7754428E2,9.852826E0,1.8145476E2,7.1323616E1,9.405579E0],"tree_param":{"num_deleted":"0","num_feature":"5","num_nodes":"63","size_leaf_vector":"1"}},{"base_weights":[-4.1045356E-3,-9.0452895E-2,9.230008E-1,7.130576E-1,-1.0438271E-1,5.402533E-1,1.1023824E0,2.0371822E-1,9.875578E-1,6.33231E-2,-1.7008075E-1,5.929181E-1,-8.154428E-1,7.589744E-1,1.1330656E0,6.075542E-1,-2.76378E-1,1.1833881E0,6.7623746E-1,1.7039546E-1,-4.9095817E-2,-1.0862699E-1,-2.9185203E-1,-1.1203207E-1,6.6237736E-1,-1.3944439E0,5.562468E-1,4.5169628E-1,1.0766115E0,1.1714773E0,8.556547E-1,6.2222578E-2,2.2119956E-2,-8.603531E-3,-9.009409E-2,6.175969E-2,5.320973E-2,1.2409533E-2,4.2048957E-2,2.9565785E-2,6.97435E-3,-4.259465E-3,4.826845E-3,-4.6312916E-3,-2.2800824E-2,-1.2816957E-2,-2.289733E-2,2.2481985E-2,-3.426989E-2,4.2551253E-2,1.755051E-2,-3.734576E-2,-8.484631E-2,-6.9361195E-2,4.1353595E-2,2.5656098E-2,-8.076145E-2,6.0467936E-2,4.2498592E-2,4.969644E-2,6.1203595E-2,1.9713227E-2,5.536744E-2],"categories":[],"categories_nodes":[],"categories_segments":[],"categories_sizes":[],"default_left":[0,0,0,0,0,0,0,0,0,0,0,0,0,0,0,0,0,0,0,0,0,0,0,0,0,0,0,0,0,0,0,0,0,0,0,0,0,0,0,0,0,0,0,0,0,0,0,0,0,0,0,0,0,0,0,0,0,0,0,0,0,0,0],"id":15,"left_children":[1,3,5,7,9,11,13,15,17,19,21,23,25,27,29,31,33,35,37,39,41,43,45,47,49,51,53,55,57,59,61,-1,-1,-1,-1,-1,-1,-1,-1,-1,-1,-1,-1,-1,-1,-1,-1,-1,-1,-1,-1,-1,-1,-1,-1,-1,-1,-1,-1,-1,-1,-1,-1],"loss_changes":[9.497099E3,1.2147761E3,6.933877E2,2.5838293E2,1.1753749E3,2.3091742E2,7.164746E1,1.2598651E2,7.245288E1,3.6145453E2,5.735652E2,1.5222778E2,9.696297E1,5.4897522E1,6.6288574E1,3.655742E1,4.6975845E1,3.2316895E0,3.2673004E1,2.0001077E2,7.700947E1,2.8313293E2,1.5152075E2,9.034039E1,1.658617E2,1.5468857E1,2.0444416E1,3.7666428E1,7.344757E0,5.05542E1,8.918683E1,0E0,0E0,0E0,0E0,0E0,0E0,0E0,0E0,0E0,0E0,0E0,0E0,0E0,0E0,0E0,0E0,0E0,0E0,0E0,0E0,0E0,0E0,0E0,0E0,0E0,0E0,0E0,0E0,0E0,0E0,0E0,0E0],"parents":[2147483647,0,0,1,1,2,2,3,3,4,4,5,5,6,6,7,7,8,8,9,9,10,10,11,11,12,12,13,13,14,14,15,15,16,16,17,17,18,18,19,19,20,20,21,21,22,22,23,23,24,24,25,25,26,26,27,27,28,28,29,29,30,30],"right_children":[2,4,6,8,10,12,14,16,18,20,22,24,26,28,30,32,34,36,38,40,42,44,46,48,50,52,54,56,58,60,62,-1,-1,-1,-1,-1,-1,-1,-1,-1,-1,-1,-1,-1,-1,-1,-1,-1,-1,-1,-1,-1,-1,-1,-1,-1,-1,-1,-1,-1,-1,-1,-1],"split_conditions":[1.6303923E0,-6.2663E0,2.1162417E0,-1.5357876E1,-5.382614E-1,1.287635E1,-2.0049932E0,5.551329E-1,-8.947239E0,2.9517427E-2,2.1713136E-1,-3.1851113E0,5.0920377E0,2.8490016E0,1.6603754E0,-1.8904167E-1,-1.612964E1,-2.87517E-1,-1.9064912E0,-1.2989327E0,7.019571E-1,1.287635E1,7.245157E-1,-5.084504E0,-1.0723861E-2,1.7145021E0,1.6978302E1,3.474531E0,-7.2220607E0,-4.4863272E-1,2.8490016E0,6.2222578E-2,2.2119956E-2,-8.603531E-3,-9.009409E-2,6.175969E-2,5.320973E-2,1.2409533E-2,4.2048957E-2,2.9565785E-2,6.97435E-3,-4.259465E-3,4.826845E-3,-4.6312916E-3,-2.2800824E-2,-1.2816957E-2,-2.289733E-2,2.2481985E-2,-3.426989E-2,4.2551253E-2,1.755051E-2,-3.734576E-2,-8.484631E-2,-6.9361195E-2,4.1353595E-2,2.5656098E-2,-8.076145E-2,6.0467936E-2,4.2498592E-2,4.969644E-2,6.1203595E-2,1.9713227E-2,5.536744E-2],"split_indices":[1,3,1,2,1,2,2,1,3,3,3,2,3,1,3,1,2,2,2,1,3,2,1,3,3,1,2,3,2,3,1,0,0,0,0,0,0,0,0,0,0,0,0,0,0,0,0,0,0,0,0,0,0,0,0,0,0,0,0,0,0,0,0],"split_type":[0,0,0,0,0,0,0,0,0,0,0,0,0,0,0,0,0,0,0,0,0,0,0,0,0,0,0,0,0,0,0,0,0,0,0,0,0,0,0,0,0,0,0,0,0,0,0,0,0,0,0,0,0,0,0,0,0,0,0,0,0,0,0],"sum_hessian":[1.1863159E5,1.0852476E5,1.0106832E4,1.8484904E3,1.0667627E5,3.2264827E3,6.8803496E3,6.479505E2,1.2005399E3,3.002703E4,7.664924E4,3.106372E3,1.201107E2,5.664402E2,6.313909E3,3.5178165E2,2.9616885E2,7.352459E2,4.65294E2,1.5378963E4,1.4648067E4,5.0942312E4,2.570693E4,2.785655E2,2.8278064E3,8.444796E1,3.5662743E1,2.8914606E2,2.7729413E2,5.543153E3,7.707562E2,7.109165E1,2.8068997E2,2.782557E2,1.7913132E1,5.0597037E2,2.2927554E2,1.3000635E2,3.3528766E2,1.050796E3,1.4328167E4,1.1739079E4,2.908988E3,4.8700383E4,2.2419287E3,2.1180783E4,4.526147E3,1.4082674E2,1.3773874E2,1.7598406E3,1.067966E3,2.7992739E1,5.6455223E1,3.8576436E0,3.18051E1,2.8153116E2,7.6149073E0,1.7213522E2,1.0515891E2,1.2713226E3,4.2718306E3,2.7295615E2,4.9780008E2],"tree_param":{"num_deleted":"0","num_feature":"5","num_nodes":"63","size_leaf_vector":"1"}},{"base_weights":[2.6576228E-3,-7.397226E-2,9.7100055E-1,7.4702996E-1,-8.950362E-2,6.0025907E-1,1.0755293E0,1.7980297E-1,1.0083822E0,7.169853E-2,-1.5204853E-1,6.406709E-1,-4.9860016E-1,7.905542E-1,1.1114705E0,7.661071E-1,-6.0365442E-2,1.1682729E0,7.461196E-1,3.405081E-1,2.8134035E-2,-9.2638426E-2,-2.7038598E-1,5.426891E-1,1.1157627E0,-1.0329131E0,5.588586E-1,6.070039E-1,1.0110385E0,1.1519753E0,8.395161E-1,4.9388405E-2,-1.5179373E-2,-9.475455E-2,-1.4176914E-4,4.854243E-2,5.953733E-2,-8.53287E-2,3.857015E-2,7.3436263E-4,2.3130609E-2,1.5647775E-2,8.979986E-5,-3.7719475E-3,-2.3633478E-2,-1.1265378E-2,-1.8063249E-2,5.978852E-2,2.2484647E-2,7.777327E-2,3.898317E-2,3.8951334E-2,-8.107549E-2,-6.99762E-2,5.150221E-2,-2.4763344E-2,3.3698104E-2,5.7256337E-2,4.3833446E-2,5.0252832E-2,6.0336795E-2,2.2486003E-2,5.3922135E-2],"categories":[],"categories_nodes":[],"categories_segments":[],"categories_sizes":[],"default_left":[0,0,0,0,0,0,0,0,0,0,0,0,0,0,0,0,0,0,0,0,0,0,0,0,0,0,0,0,0,0,0,0,0,0,0,0,0,0,0,0,0,0,0,0,0,0,0,0,0,0,0,0,0,0,0,0,0,0,0,0,0,0,0],"id":16,"left_children":[1,3,5,7,9,11,13,15,17,19,21,23,25,27,29,31,33,35,37,39,41,43,45,47,49,51,53,55,57,59,61,-1,-1,-1,-1,-1,-1,-1,-1,-1,-1,-1,-1,-1,-1,-1,-1,-1,-1,-1,-1,-1,-1,-1,-1,-1,-1,-1,-1,-1,-1,-1,-1],"loss_changes":[8.80686E3,1.402467E3,3.366377E2,3.0254504E2,1.088303E3,8.542267E1,6.864502E1,9.091567E1,5.7739624E1,3.5333987E2,5.4671436E2,8.5461426E1,3.9304268E1,3.0292389E1,6.540381E1,4.4781906E1,4.8413857E1,2.6889648E0,3.4316742E1,1.6740436E2,1.9479143E2,3.3839032E2,1.06401E2,9.2672485E1,4.536432E1,5.019993E1,2.3270819E1,3.1276749E1,5.2199097E0,4.0956055E1,7.26012E1,0E0,0E0,0E0,0E0,0E0,0E0,0E0,0E0,0E0,0E0,0E0,0E0,0E0,0E0,0E0,0E0,0E0,0E0,0E0,0E0,0E0,0E0,0E0,0E0,0E0,0E0,0E0,0E0,0E0,0E0,0E0,0E0],"parents":[2147483647,0,0,1,1,2,2,3,3,4,4,5,5,6,6,7,7,8,8,9,9,10,10,11,11,12,12,13,13,14,14,15,15,16,16,17,17,18,18,19,19,20,20,21,21,22,22,23,23,24,24,25,25,26,26,27,27,28,28,29,29,30,30],"right_children":[2,4,6,8,10,12,14,16,18,20,22,24,26,28,30,32,34,36,38,40,42,44,46,48,50,52,54,56,58,60,62,-1,-1,-1,-1,-1,-1,-1,-1,-1,-1,-1,-1,-1,-1,-1,-1,-1,-1,-1,-1,-1,-1,-1,-1,-1,-1,-1,-1,-1,-1,-1,-1],"split_conditions":[1.811741E0,-6.2663E0,2.1162417E0,-1.5357876E1,-5.382614E-1,1.287635E1,-1.3769405E0,2.3107699E-1,-8.947239E0,-6.027614E-1,2.1713136E-1,1.2633681E0,5.0920377E0,2.8490016E0,1.4986327E0,-1.9594734E1,3.3065236E-1,-1.2702406E1,-1.4540898E1,-1.6617694E0,-1.2763805E0,1.287635E1,2.3686059E0,-8.947239E0,-2.4414477E0,-5.1805363E0,1.9346485E0,-1.7521652E1,-7.2220607E0,-3.2798928E-1,2.8490016E0,4.9388405E-2,-1.5179373E-2,-9.475455E-2,-1.4176914E-4,4.854243E-2,5.953733E-2,-8.53287E-2,3.857015E-2,7.3436263E-4,2.3130609E-2,1.5647775E-2,8.979986E-5,-3.7719475E-3,-2.3633478E-2,-1.1265378E-2,-1.8063249E-2,5.978852E-2,2.2484647E-2,7.777327E-2,3.898317E-2,3.8951334E-2,-8.107549E-2,-6.99762E-2,5.150221E-2,-2.4763344E-2,3.3698104E-2,5.7256337E-2,4.3833446E-2,5.0252832E-2,6.0336795E-2,2.2486003E-2,5.3922135E-2],"split_indices":[1,3,1,2,1,2,2,1,3,3,3,2,3,1,3,2,1,2,2,3,1,2,3,3,3,3,1,2,2,3,1,0,0,0,0,0,0,0,0,0,0,0,0,0,0,0,0,0,0,0,0,0,0,0,0,0,0,0,0,0,0,0,0],"split_type":[0,0,0,0,0,0,0,0,0,0,0,0,0,0,0,0,0,0,0,0,0,0,0,0,0,0,0,0,0,0,0,0,0,0,0,0,0,0,0,0,0,0,0,0,0,0,0,0,0,0,0,0,0,0,0,0,0,0,0,0,0,0,0],"sum_hessian":[1.1868247E5,1.0998011E5,8.702359E3,2.0410531E3,1.07939055E5,1.91544E3,6.7869194E3,6.4432574E2,1.3967273E3,3.017259E4,7.776646E4,1.8478983E3,6.754171E1,7.626794E2,6.02424E3,1.8660118E2,4.5772455E2,8.655701E2,5.311572E2,4.206997E3,2.5965594E4,5.1775094E4,2.599137E4,1.533728E3,3.141702E2,4.4885277E1,2.265643E1,4.1824716E2,3.4443222E2,5.240487E3,7.837533E2,1.5463455E2,3.1966629E1,1.2945059E1,4.4477948E2,9.297866E1,7.7259143E2,4.7410207E0,5.264162E2,1.1471302E3,3.0598667E3,2.1969316E3,2.3768662E4,4.9534457E4,2.2406357E3,1.7375926E4,8.615444E3,1.8969615E2,1.3440319E3,1.3453566E2,1.7963455E2,1.0926266E1,3.395901E1,4.0118427E0,1.8644587E1,2.3585413E1,3.9466174E2,1.6863174E2,1.7580048E2,1.4281675E3,3.8123196E3,2.9893643E2,4.8481683E2],"tree_param":{"num_deleted":"0","num_feature":"5","num_nodes":"63","size_leaf_vector":"1"}},{"base_weights":[-1.5290842E-3,-7.456519E-2,9.470041E-1,7.125979E-1,-8.943273E-2,5.791339E-1,1.0508013E0,2.9673544E-1,9.9391097E-1,6.751692E-2,-1.505923E-1,1.1924174E0,5.050004E-1,1.0876147E0,7.919847E-1,5.435797E-1,-1.9655295E-1,1.1691979E0,7.097004E-1,1.7109866E-1,-4.1531045E-2,-9.22886E-2,-2.670198E-1,6.7058706E-1,1.266984E0,-6.064756E-3,5.9580696E-1,9.001482E-1,1.165097E0,3.7479246E-1,1.0448028E0,4.712649E-2,2.1034034E-2,-1.0350434E-1,-3.7362264E-3,6.2333595E-2,5.3914797E-2,-2.7828822E-2,3.7758604E-2,2.7114777E-2,7.19527E-3,-4.382597E-3,3.6927757E-3,-3.8257677E-3,-2.187331E-2,-4.6919524E-3,-1.4684386E-2,4.9133357E-2,-9.199891E-2,6.7574486E-2,5.2431878E-2,-1.02580406E-1,3.5658886E-3,3.2232493E-2,-2.1547932E-2,5.36423E-2,3.8649738E-2,1.3876467E-3,5.865726E-2,2.5627464E-2,-1.157683E-2,5.679622E-2,4.7347244E-2],"categories":[],"categories_nodes":[],"categories_segments":[],"categories_sizes":[],"default_left":[0,0,0,0,0,0,0,0,0,0,0,0,0,0,0,0,0,0,0,0,0,0,0,0,0,0,0,0,0,0,0,0,0,0,0,0,0,0,0,0,0,0,0,0,0,0,0,0,0,0,0,0,0,0,0,0,0,0,0,0,0,0,0],"id":17,"left_children":[1,3,5,7,9,11,13,15,17,19,21,23,25,27,29,31,33,35,37,39,41,43,45,47,49,51,53,55,57,59,61,-1,-1,-1,-1,-1,-1,-1,-1,-1,-1,-1,-1,-1,-1,-1,-1,-1,-1,-1,-1,-1,-1,-1,-1,-1,-1,-1,-1,-1,-1,-1,-1],"loss_changes":[8.1797886E3,1.2831047E3,3.2172217E2,2.3747021E2,1.0328635E3,8.3958374E1,6.185742E1,1.0013786E2,5.9544678E1,3.4081915E2,5.255735E2,6.926544E0,7.709042E1,8.2620605E1,8.645386E1,2.6461853E1,6.254957E1,3.9238281E0,2.718631E1,1.5612119E2,7.823231E1,2.8087408E2,1.1929077E2,2.3049223E1,1.7884216E0,3.9972034E1,7.101294E1,3.62583E1,3.7243652E1,2.619971E1,3.4910278E0,0E0,0E0,0E0,0E0,0E0,0E0,0E0,0E0,0E0,0E0,0E0,0E0,0E0,0E0,0E0,0E0,0E0,0E0,0E0,0E0,0E0,0E0,0E0,0E0,0E0,0E0,0E0,0E0,0E0,0E0,0E0,0E0],"parents":[2147483647,0,0,1,1,2,2,3,3,4,4,5,5,6,6,7,7,8,8,9,9,10,10,11,11,12,12,13,13,14,14,15,15,16,16,17,17,18,18,19,19,20,20,21,21,22,22,23,23,24,24,25,25,26,26,27,27,28,28,29,29,30,30],"right_children":[2,4,6,8,10,12,14,16,18,20,22,24,26,28,30,32,34,36,38,40,42,44,46,48,50,52,54,56,58,60,62,-1,-1,-1,-1,-1,-1,-1,-1,-1,-1,-1,-1,-1,-1,-1,-1,-1,-1,-1,-1,-1,-1,-1,-1,-1,-1,-1,-1,-1,-1,-1,-1],"split_conditions":[1.811741E0,-6.2663E0,2.1162417E0,-1.2702406E1,-5.382614E-1,-8.947239E0,1.4986327E0,7.656827E-1,-8.947239E0,2.9517427E-2,2.1713136E-1,-1.2702406E1,-1.3210168E0,-4.352547E-1,2.8490016E0,7.102881E-2,8.398829E-1,-5.2201545E-1,2.1625994E-1,-1.2989327E0,5.6788206E-1,1.287635E1,-5.4480255E-1,-1.8757784E1,-7.571493E-2,-1.8119202E1,1.287635E1,-4.347212E0,-3.5406265E0,1.6491148E0,-4.5392647E-2,4.712649E-2,2.1034034E-2,-1.0350434E-1,-3.7362264E-3,6.2333595E-2,5.3914797E-2,-2.7828822E-2,3.7758604E-2,2.7114777E-2,7.19527E-3,-4.382597E-3,3.6927757E-3,-3.8257677E-3,-2.187331E-2,-4.6919524E-3,-1.4684386E-2,4.9133357E-2,-9.199891E-2,6.7574486E-2,5.2431878E-2,-1.02580406E-1,3.5658886E-3,3.2232493E-2,-2.1547932E-2,5.36423E-2,3.8649738E-2,1.3876467E-3,5.865726E-2,2.5627464E-2,-1.157683E-2,5.679622E-2,4.7347244E-2],"split_indices":[1,3,1,2,1,3,3,1,3,3,3,2,2,3,1,1,1,2,1,1,3,2,2,2,2,2,2,3,2,2,2,0,0,0,0,0,0,0,0,0,0,0,0,0,0,0,0,0,0,0,0,0,0,0,0,0,0,0,0,0,0,0,0],"split_type":[0,0,0,0,0,0,0,0,0,0,0,0,0,0,0,0,0,0,0,0,0,0,0,0,0,0,0,0,0,0,0,0,0,0,0,0,0,0,0,0,0,0,0,0,0,0,0,0,0,0,0,0,0,0,0,0,0,0,0,0,0,0,0],"sum_hessian":[1.1807135E5,1.09630805E5,8.440541E3,2.0313977E3,1.07599414E5,1.8589108E3,6.581631E3,8.205061E2,1.2108916E3,3.0171701E4,7.742771E4,1.9884474E2,1.660066E3,5.7592466E3,8.223839E2,5.4678827E2,2.7371783E2,7.470403E2,4.6385135E2,1.5473383E4,1.4698319E4,5.1593094E4,2.5834613E4,2.6110664E1,1.7273409E2,2.506008E2,1.4094652E3,1.6879395E3,4.0713074E3,3.112507E2,5.111332E2,1.27201706E2,4.1958658E2,1.5735668E1,2.5798218E2,3.9644455E2,3.505957E2,1.5689725E1,4.4816162E2,1.0548871E3,1.4418495E4,1.0501164E4,4.197156E3,4.933969E4,2.2534053E3,3.4479858E3,2.2386627E4,2.376509E1,2.345573E0,1.2079404E2,5.1940044E1,8.204666E0,2.4239613E2,1.3458173E3,6.3647926E1,7.126257E2,9.753138E2,2.8638472E1,4.042669E3,2.5375314E2,5.749756E1,2.5918353E2,2.5194966E2],"tree_param":{"num_deleted":"0","num_feature":"5","num_nodes":"63","size_leaf_vector":"1"}},{"base_weights":[5.818151E-3,-6.845994E-2,8.4873796E-1,6.4692956E-1,-8.051166E-2,5.129168E-1,1.0188092E0,1.9412647E-1,8.986639E-1,6.844097E-2,-1.393174E-1,5.633675E-1,-9.2974746E-1,8.083679E-1,1.077061E0,6.71699E-1,-1.9173919E-1,1.081798E0,6.282685E-1,2.6395065E-1,1.3544344E-2,-5.6622818E-2,-2.0020995E-1,8.8645846E-2,6.6964644E-1,3.2740945E-1,-1.1117699E0,8.664251E-1,4.307215E-1,8.6618847E-1,1.1311815E0,4.337087E-2,5.3485157E-3,-4.336512E-3,-8.946666E-2,5.7415314E-2,4.6512946E-2,-8.2544215E-2,3.281483E-2,-1.7792534E-2,1.4808819E-2,1.2335653E-2,-4.0887907E-4,6.216622E-3,-6.1061135E-3,-8.570761E-3,-1.6120683E-2,-1.0496565E-1,6.5760165E-3,4.3234393E-2,1.8876588E-2,-6.9214806E-2,6.3054085E-2,-6.520819E-2,8.240147E-3,2.053596E-2,4.666651E-2,3.2932263E-2,-4.940728E-2,5.3114362E-2,3.2997124E-2,5.912256E-2,4.377252E-2],"categories":[],"categories_nodes":[],"categories_segments":[],"categories_sizes":[],"default_left":[0,0,0,0,0,0,0,0,0,0,0,0,0,0,0,0,0,0,0,0,0,0,0,0,0,0,0,0,0,0,0,0,0,0,0,0,0,0,0,0,0,0,0,0,0,0,0,0,0,0,0,0,0,0,0,0,0,0,0,0,0,0,0],"id":18,"left_children":[1,3,5,7,9,11,13,15,17,19,21,23,25,27,29,31,33,35,37,39,41,43,45,47,49,51,53,55,57,59,61,-1,-1,-1,-1,-1,-1,-1,-1,-1,-1,-1,-1,-1,-1,-1,-1,-1,-1,-1,-1,-1,-1,-1,-1,-1,-1,-1,-1,-1,-1,-1,-1],"loss_changes":[7.403401E3,9.3696484E2,5.4639355E2,2.0505371E2,9.361129E2,2.3497821E2,7.7041016E1,1.1891321E2,5.660736E1,3.2466528E2,3.85812E2,1.570028E2,2.5356926E1,2.992511E1,5.5794434E1,3.1770813E1,5.9786827E1,5.869446E0,3.1077179E1,1.3256363E2,1.19631386E2,3.851596E2,1.5522021E2,5.3803E1,1.4458472E2,2.5057106E1,2.3703056E1,3.6105164E1,6.0842785E1,4.0564148E1,5.082666E1,0E0,0E0,0E0,0E0,0E0,0E0,0E0,0E0,0E0,0E0,0E0,0E0,0E0,0E0,0E0,0E0,0E0,0E0,0E0,0E0,0E0,0E0,0E0,0E0,0E0,0E0,0E0,0E0,0E0,0E0,0E0,0E0],"parents":[2147483647,0,0,1,1,2,2,3,3,4,4,5,5,6,6,7,7,8,8,9,9,10,10,11,11,12,12,13,13,14,14,15,15,16,16,17,17,18,18,19,19,20,20,21,21,22,22,23,23,24,24,25,25,26,26,27,27,28,28,29,29,30,30],"right_children":[2,4,6,8,10,12,14,16,18,20,22,24,26,28,30,32,34,36,38,40,42,44,46,48,50,52,54,56,58,60,62,-1,-1,-1,-1,-1,-1,-1,-1,-1,-1,-1,-1,-1,-1,-1,-1,-1,-1,-1,-1,-1,-1,-1,-1,-1,-1,-1,-1,-1,-1,-1,-1],"split_conditions":[1.6303923E0,-6.2663E0,2.1162417E0,-1.5357876E1,-5.382614E-1,1.287635E1,2.3932314E0,4.2417198E-1,-8.947239E0,-3.905094E-1,-2.1402144E-1,-1.1273718E0,-5.1805363E0,1.4986327E0,-4.8659518E-1,-1.9594734E1,-1.612964E1,-2.87517E-1,-1.4540898E1,-1.4540898E1,-1.2763805E0,-1.2869836E-1,2.3686059E0,-1.9594734E1,4.5576406E-4,1.8134272E1,8.825281E0,-1.5054926E0,1.5507944E0,-4.042922E0,1.269437E0,4.337087E-2,5.3485157E-3,-4.336512E-3,-8.946666E-2,5.7415314E-2,4.6512946E-2,-8.2544215E-2,3.281483E-2,-1.7792534E-2,1.4808819E-2,1.2335653E-2,-4.0887907E-4,6.216622E-3,-6.1061135E-3,-8.570761E-3,-1.6120683E-2,-1.0496565E-1,6.5760165E-3,4.3234393E-2,1.8876588E-2,-6.9214806E-2,6.3054085E-2,-6.520819E-2,8.240147E-3,2.053596E-2,4.666651E-2,3.2932263E-2,-4.940728E-2,5.3114362E-2,3.2997124E-2,5.912256E-2,4.377252E-2],"split_indices":[1,3,1,2,1,2,1,1,3,3,3,2,3,3,3,2,2,2,2,2,1,1,3,2,3,2,3,2,2,3,3,0,0,0,0,0,0,0,0,0,0,0,0,0,0,0,0,0,0,0,0,0,0,0,0,0,0,0,0,0,0,0,0],"split_type":[0,0,0,0,0,0,0,0,0,0,0,0,0,0,0,0,0,0,0,0,0,0,0,0,0,0,0,0,0,0,0,0,0,0,0,0,0,0,0,0,0,0,0,0,0,0,0,0,0,0,0,0,0,0,0,0,0,0,0,0,0,0,0],"sum_hessian":[1.1824345E5,1.0866851E5,9.57495E3,1.7994679E3,1.0686904E5,3.220263E3,6.3546875E3,6.4359064E2,1.1558773E3,3.0249098E4,7.6619945E4,3.1120427E3,1.0822014E2,1.3809015E3,4.973786E3,2.8728598E2,3.5630463E2,6.873478E2,4.6852948E2,6.63068E3,2.3618416E4,3.2493865E4,4.412608E4,5.6960297E2,2.5424397E3,1.3586288E1,9.463385E1,1.1957755E3,1.85126E2,1.01928723E3,3.9544988E3,2.1294836E2,7.433762E1,3.353186E2,2.0986013E1,4.7312332E2,2.1422449E2,4.988399E0,4.6354108E2,3.2721805E2,6.3034624E3,2.0118922E3,2.1606525E4,8.635549E3,2.3858316E4,3.5713375E4,8.4127E3,1.0025399E1,5.595776E2,1.5233545E3,1.0190852E3,4.6248655E0,8.961423E0,8.2220665E1,1.2413184E1,1.5399803E2,1.0417775E3,1.5996532E2,2.5160692E1,5.2036926E2,4.9891794E2,3.2910715E3,6.634272E2],"tree_param":{"num_deleted":"0","num_feature":"5","num_nodes":"63","size_leaf_vector":"1"}},{"base_weights":[7.8737205E-3,1.2145723E0,-6.506467E-1,1.3697076E0,8.0541176E-1,-1.6541791E-1,-8.5989064E-1,1.410275E0,1.1805644E0,9.4061947E-1,4.8659876E-1,-7.1287733E-1,5.4098647E-2,-9.185427E-1,6.375803E-1,1.4312456E0,1.306462E0,1.3033925E0,9.7654116E-1,1.0721358E0,6.9433856E-1,8.31184E-1,3.332423E-1,5.5481124E-1,-7.702525E-1,2.8938833E-1,-3.702643E-1,5.5972713E-1,-9.58774E-1,7.34568E-1,-6.1580867E-1,6.982933E-2,7.2576344E-2,6.560607E-2,-8.473092E-2,7.070129E-2,6.1951976E-2,5.491391E-2,3.5551753E-2,5.8472037E-2,4.058745E-2,4.1021902E-2,2.4960782E-2,5.969804E-2,1.967974E-2,1.3692847E-2,3.938374E-2,-9.088475E-2,4.217082E-2,-5.8191875E-3,-4.5901764E-2,9.251314E-3,5.242586E-2,-2.3464976E-2,3.572676E-2,3.9914813E-2,9.417752E-3,-4.288408E-2,-5.5201482E-2,1.832045E-2,5.1760085E-2,2.8237233E-2,-8.408843E-2],"categories":[],"categories_nodes":[],"categories_segments":[],"categories_sizes":[],"default_left":[0,0,0,0,0,0,0,0,0,0,0,0,0,0,0,0,0,0,0,0,0,0,0,0,0,0,0,0,0,0,0,0,0,0,0,0,0,0,0,0,0,0,0,0,0,0,0,0,0,0,0,0,0,0,0,0,0,0,0,0,0,0,0],"id":19,"left_children":[1,3,5,7,9,11,13,15,17,19,21,23,25,27,29,31,33,35,37,39,41,43,45,47,49,51,53,55,57,59,61,-1,-1,-1,-1,-1,-1,-1,-1,-1,-1,-1,-1,-1,-1,-1,-1,-1,-1,-1,-1,-1,-1,-1,-1,-1,-1,-1,-1,-1,-1,-1,-1],"loss_changes":[9.37811E4,2.6436797E3,7.7518965E3,2.3014453E2,4.9341992E2,2.7647937E3,4.685992E3,5.226953E1,1.3257959E2,2.5980762E2,1.8013715E2,4.7934814E2,1.6398378E3,3.0536445E3,2.449502E2,1.25078125E1,7.340381E1,2.1964355E1,6.422534E1,1.3186963E2,6.85614E1,1.66341E2,6.358789E1,1.9715189E2,6.0865405E2,8.3682544E2,6.296843E2,1.2040814E2,7.3291406E2,2.0629309E2,1.8342041E2,0E0,0E0,0E0,0E0,0E0,0E0,0E0,0E0,0E0,0E0,0E0,0E0,0E0,0E0,0E0,0E0,0E0,0E0,0E0,0E0,0E0,0E0,0E0,0E0,0E0,0E0,0E0,0E0,0E0,0E0,0E0,0E0],"parents":[2147483647,0,0,1,1,2,2,3,3,4,4,5,5,6,6,7,7,8,8,9,9,10,10,11,11,12,12,13,13,14,14,15,15,16,16,17,17,18,18,19,19,20,20,21,21,22,22,23,23,24,24,25,25,26,26,27,27,28,28,29,29,30,30],"right_children":[2,4,6,8,10,12,14,16,18,20,22,24,26,28,30,32,34,36,38,40,42,44,46,48,50,52,54,56,58,60,62,-1,-1,-1,-1,-1,-1,-1,-1,-1,-1,-1,-1,-1,-1,-1,-1,-1,-1,-1,-1,-1,-1,-1,-1,-1,-1,-1,-1,-1,-1,-1,-1],"split_conditions":[-9.970777E-1,-1.5331744E0,-3.0432767E-1,1.0085568E0,2.6184988E-1,-3.456422E-1,1.9346485E0,-2.0728428E0,-2.7808962E0,-1.1764821E0,-4.945364E-1,-1.2989327E0,1.9254692E-1,-6.2663E0,1.4986327E0,-5.207183E-1,6.5486865E0,1.811741E0,1.5458445E-1,3.1516963E-1,1.1361102E-1,-1.27777E0,1.9346485E0,-6.620842E-1,-8.1909645E-1,1.6303923E0,1.811741E0,-8.947239E0,5.6545633E-1,-3.1903484E-1,-4.830542E-2,6.982933E-2,7.2576344E-2,6.560607E-2,-8.473092E-2,7.070129E-2,6.1951976E-2,5.491391E-2,3.5551753E-2,5.8472037E-2,4.058745E-2,4.1021902E-2,2.4960782E-2,5.969804E-2,1.967974E-2,1.3692847E-2,3.938374E-2,-9.088475E-2,4.217082E-2,-5.8191875E-3,-4.5901764E-2,9.251314E-3,5.242586E-2,-2.3464976E-2,3.572676E-2,3.9914813E-2,9.417752E-3,-4.288408E-2,-5.5201482E-2,1.832045E-2,5.1760085E-2,2.8237233E-2,-8.408843E-2],"split_indices":[0,0,0,1,3,1,1,0,0,0,1,1,3,3,3,1,3,1,3,1,1,0,1,0,0,1,1,3,0,3,0,0,0,0,0,0,0,0,0,0,0,0,0,0,0,0,0,0,0,0,0,0,0,0,0,0,0,0,0,0,0,0,0],"split_type":[0,0,0,0,0,0,0,0,0,0,0,0,0,0,0,0,0,0,0,0,0,0,0,0,0,0,0,0,0,0,0,0,0,0,0,0,0,0,0,0,0,0,0,0,0,0,0,0,0,0,0,0,0,0,0,0,0,0,0,0,0,0,0],"sum_hessian":[1.1801574E5,4.1665465E4,7.635028E4,3.020917E4,1.1456297E4,2.3004805E4,5.3345477E4,2.486885E4,5.3403203E3,8.043234E3,3.4130635E3,6.5835728E3,1.6421232E4,5.1335195E4,2.0102784E3,2.0678854E4,4.189995E3,3.3301064E3,2.010214E3,5.241089E3,2.802145E3,1.0497965E3,2.3632668E3,2.8469272E2,6.29888E3,1.0564192E4,5.8570396E3,1.3597382E3,4.9975457E4,1.8662789E3,1.439995E2,7.6594316E3,1.3019422E4,4.1826704E3,7.324747E0,1.2169674E3,2.113139E3,1.3761157E3,6.3409827E2,3.812784E3,1.4283047E3,1.7001849E3,1.1019602E3,5.7301697E2,4.7677957E2,2.0915457E3,2.717211E2,3.0301136E1,2.543916E2,1.1615146E3,5.137365E3,9.288491E3,1.2757012E3,5.367581E3,4.8945825E2,8.271977E2,5.3254047E2,2.9471395E4,2.0504064E4,8.399215E2,1.0263574E3,6.8550186E1,7.544931E1],"tree_param":{"num_deleted":"0","num_feature":"5","num_nodes":"63","size_leaf_vector":"1"}},{"base_weights":[-6.735179E-3,1.1539128E0,-6.591057E-1,1.3193767E0,6.665418E-1,-7.32831E-1,5.9608567E-1,1.3727988E0,1.1407965E0,7.765151E-1,2.5372347E-1,-2.1045317E-1,-8.672132E-1,7.0992446E-1,-7.439249E-1,1.3970015E0,1.1795214E0,1.2678894E0,8.554011E-1,9.198611E-1,4.5864862E-1,6.1936754E-1,1.7697786E-1,-7.671908E-1,-9.294767E-3,1.701911E-1,-9.1316134E-1,9.734349E-1,3.049347E-1,-8.1081E-2,-9.85403E-2,6.8459995E-2,7.059226E-2,6.232211E-2,5.1383365E-2,6.358839E-2,-7.3143706E-2,4.5134876E-2,1.38011305E-2,5.1455345E-2,3.4725167E-2,-6.794228E-2,2.7961094E-2,4.529975E-2,-8.320727E-2,5.42791E-3,3.899418E-2,-1.2760127E-2,-4.670611E-2,1.590403E-2,-1.6537776E-2,2.510257E-2,-1.1526916E-2,-3.4231212E-2,-5.035609E-2,3.4955192E-2,5.2984834E-2,-9.0702735E-3,3.1769898E-2,1.9209843E-2,-8.193016E-2],"categories":[],"categories_nodes":[],"categories_segments":[],"categories_sizes":[],"default_left":[0,0,0,0,0,0,0,0,0,0,0,0,0,0,0,0,0,0,0,0,0,0,0,0,0,0,0,0,0,0,0,0,0,0,0,0,0,0,0,0,0,0,0,0,0,0,0,0,0,0,0,0,0,0,0,0,0,0,0,0,0],"id":20,"left_children":[1,3,5,7,9,11,13,15,17,19,21,23,25,27,29,31,33,35,37,39,41,43,45,47,49,51,53,55,57,-1,59,-1,-1,-1,-1,-1,-1,-1,-1,-1,-1,-1,-1,-1,-1,-1,-1,-1,-1,-1,-1,-1,-1,-1,-1,-1,-1,-1,-1,-1,-1],"loss_changes":[8.732654E4,3.3457383E3,6.832879E3,2.939922E2,4.774131E2,4.89525E3,6.2544946E2,1.0987891E2,2.5787988E2,3.780747E2,6.2032944E1,1.5981836E3,2.644121E3,4.0271362E2,1.818189E2,6.8085938E0,2.5747559E1,5.4157227E1,6.0115112E1,1.4020654E2,4.7304828E2,2.52693E2,7.547548E1,3.2347803E2,1.1034128E3,3.1308414E2,1.1398828E3,5.3387207E1,2.3958932E2,0E0,1.3905597E2,0E0,0E0,0E0,0E0,0E0,0E0,0E0,0E0,0E0,0E0,0E0,0E0,0E0,0E0,0E0,0E0,0E0,0E0,0E0,0E0,0E0,0E0,0E0,0E0,0E0,0E0,0E0,0E0,0E0,0E0],"parents":[2147483647,0,0,1,1,2,2,3,3,4,4,5,5,6,6,7,7,8,8,9,9,10,10,11,11,12,12,13,13,14,14,15,15,16,16,17,17,18,18,19,19,20,20,21,21,22,22,23,23,24,24,25,25,26,26,27,27,28,28,30,30],"right_children":[2,4,6,8,10,12,14,16,18,20,22,24,26,28,30,32,34,36,38,40,42,44,46,48,50,52,54,56,58,-1,60,-1,-1,-1,-1,-1,-1,-1,-1,-1,-1,-1,-1,-1,-1,-1,-1,-1,-1,-1,-1,-1,-1,-1,-1,-1,-1,-1,-1,-1,-1],"split_conditions":[-9.451406E-1,-1.4114286E0,1.7145021E0,-2.0728428E0,4.5394102E-1,-4.4782853E-1,1.6603754E0,1.7145021E0,4.606628E-1,-1.0975434E0,-7.447014E-1,-4.1175482E-1,-5.3905363E0,6.2016826E-2,2.1162417E0,-5.207183E-1,-3.4948838E0,5.7667294E0,5.0920377E0,1.8730754E-1,-9.006327E-1,-1.0622983E0,1.9346485E0,-8.008054E-1,-4.6514746E-2,-6.2663E0,-3.2622024E-2,2.1162417E0,2.1162417E0,-8.1081E-2,-4.830542E-2,6.8459995E-2,7.059226E-2,6.232211E-2,5.1383365E-2,6.358839E-2,-7.3143706E-2,4.5134876E-2,1.38011305E-2,5.1455345E-2,3.4725167E-2,-6.794228E-2,2.7961094E-2,4.529975E-2,-8.320727E-2,5.42791E-3,3.899418E-2,-1.2760127E-2,-4.670611E-2,1.590403E-2,-1.6537776E-2,2.510257E-2,-1.1526916E-2,-3.4231212E-2,-5.035609E-2,3.4955192E-2,5.2984834E-2,-9.0702735E-3,3.1769898E-2,1.9209843E-2,-8.193016E-2],"split_indices":[0,0,1,0,3,0,3,1,1,0,1,1,3,0,1,1,0,3,3,1,1,0,1,0,3,3,0,1,1,0,0,0,0,0,0,0,0,0,0,0,0,0,0,0,0,0,0,0,0,0,0,0,0,0,0,0,0,0,0,0,0],"split_type":[0,0,0,0,0,0,0,0,0,0,0,0,0,0,0,0,0,0,0,0,0,0,0,0,0,0,0,0,0,0,0,0,0,0,0,0,0,0,0,0,0,0,0,0,0,0,0,0,0,0,0,0,0,0,0,0,0,0,0,0,0],"sum_hessian":[1.1533041E5,4.149856E4,7.383184E4,3.097929E4,1.05192705E4,6.973622E4,4.09563E3,2.3840686E4,7.138603E3,8.305764E3,2.213506E3,1.42695205E4,5.5466695E4,3.7753687E3,3.202612E2,2.1182E4,2.6586873E3,4.9367295E3,2.201874E3,5.723007E3,2.5827576E3,3.827717E2,1.8307343E3,3.7866245E3,1.04828955E4,2.35239E3,5.3114305E4,2.2863376E3,1.4890309E3,1.3506543E2,1.8519577E2,7.405361E3,1.3776639E4,1.8404215E3,8.1826575E2,4.930261E3,6.4680367E0,2.0351781E3,1.6669589E2,3.852083E3,1.8709237E3,1.3477007E2,2.4479873E3,3.4062018E2,4.2151535E1,1.6452106E3,1.8552368E2,9.316691E2,2.8549556E3,5.1936733E3,5.289222E3,1.286628E3,1.065762E3,1.54774E4,3.7636902E4,5.491205E2,1.7372173E3,6.026162E2,8.864147E2,1.4157059E2,4.3625175E1],"tree_param":{"num_deleted":"0","num_feature":"5","num_nodes":"61","size_leaf_vector":"1"}},{"base_weights":[3.2203281E-3,1.1492584E0,-6.0484445E-1,1.3098948E0,7.4493366E-1,-1.544885E-1,-8.0330074E-1,1.3476758E0,1.1314068E0,9.804928E-1,5.961884E-1,-7.00143E-1,5.955406E-2,-8.563116E-1,5.723768E-1,1.3707398E0,1.2368069E0,1.2574024E0,9.3620396E-1,1.1585659E0,6.452707E-1,7.614495E-1,5.05124E-1,5.107327E-1,-7.5503415E-1,-3.5786383E-2,9.2893845E-1,-9.117354E-1,-4.768202E-1,-6.500733E-1,7.3598385E-1,6.710946E-2,6.936114E-2,6.413811E-2,4.633523E-2,6.7046314E-2,5.982805E-2,-1.0532743E-1,4.6994925E-2,-1.15158394E-1,5.8157284E-2,3.4351204E-2,-2.4623288E-2,1.9145504E-2,4.1827496E-2,2.2116832E-2,4.4931386E-2,-8.600017E-2,3.965622E-2,-7.0835813E-3,-4.4793557E-2,1.237977E-2,-7.0612663E-3,4.6966266E-2,-8.914404E-2,-2.4565276E-2,-4.6868544E-2,2.3478406E-2,-4.1501027E-2,-5.244034E-3,-1.1326765E-1,3.9313868E-2,-2.2885665E-2],"categories":[],"categories_nodes":[],"categories_segments":[],"categories_sizes":[],"default_left":[0,0,0,0,0,0,0,0,0,0,0,0,0,0,0,0,0,0,0,0,0,0,0,0,0,0,0,0,0,0,0,0,0,0,0,0,0,0,0,0,0,0,0,0,0,0,0,0,0,0,0,0,0,0,0,0,0,0,0,0,0,0,0],"id":21,"left_children":[1,3,5,7,9,11,13,15,17,19,21,23,25,27,29,31,33,35,37,39,41,43,45,47,49,51,53,55,57,59,61,-1,-1,-1,-1,-1,-1,-1,-1,-1,-1,-1,-1,-1,-1,-1,-1,-1,-1,-1,-1,-1,-1,-1,-1,-1,-1,-1,-1,-1,-1,-1,-1],"loss_changes":[7.941504E4,2.5648242E3,6.654426E3,1.891211E2,3.930625E2,2.660064E3,3.7693867E3,5.794922E1,1.2044336E2,2.5873438E2,1.0328931E2,4.269004E2,1.3560284E3,1.0462422E3,3.84123E2,7.21875E0,5.6203613E1,1.3652344E1,2.3829956E1,4.7666504E1,7.208307E1,6.919971E1,1.09411865E2,1.7703961E2,5.301963E2,4.4056842E2,4.7215454E1,4.6753125E2,2.1209033E3,1.9962509E2,1.01954834E2,0E0,0E0,0E0,0E0,0E0,0E0,0E0,0E0,0E0,0E0,0E0,0E0,0E0,0E0,0E0,0E0,0E0,0E0,0E0,0E0,0E0,0E0,0E0,0E0,0E0,0E0,0E0,0E0,0E0,0E0,0E0,0E0],"parents":[2147483647,0,0,1,1,2,2,3,3,4,4,5,5,6,6,7,7,8,8,9,9,10,10,11,11,12,12,13,13,14,14,15,15,16,16,17,17,18,18,19,19,20,20,21,21,22,22,23,23,24,24,25,25,26,26,27,27,28,28,29,29,30,30],"right_children":[2,4,6,8,10,12,14,16,18,20,22,24,26,28,30,32,34,36,38,40,42,44,46,48,50,52,54,56,58,60,62,-1,-1,-1,-1,-1,-1,-1,-1,-1,-1,-1,-1,-1,-1,-1,-1,-1,-1,-1,-1,-1,-1,-1,-1,-1,-1,-1,-1,-1,-1,-1,-1],"split_conditions":[-9.970777E-1,-1.5331744E0,-3.0432767E-1,1.0085568E0,-3.9428657E-1,-3.456422E-1,1.9346485E0,-2.0728428E0,-2.7808962E0,-1.2229676E0,-2.7235588E-1,-1.2989327E0,1.811741E0,8.7437457E-1,-1.3210168E0,-5.207183E-1,4.6924123E-1,1.9346485E0,-1.9594734E1,-1.5357876E1,1.2633681E0,-1.2702406E1,1.9346485E0,-6.620842E-1,-8.1909645E-1,-5.2201545E-1,1.8134272E1,-7.2220607E0,7.8765795E-2,4.72833E-1,8.710849E0,6.710946E-2,6.936114E-2,6.413811E-2,4.633523E-2,6.7046314E-2,5.982805E-2,-1.0532743E-1,4.6994925E-2,-1.15158394E-1,5.8157284E-2,3.4351204E-2,-2.4623288E-2,1.9145504E-2,4.1827496E-2,2.2116832E-2,4.4931386E-2,-8.600017E-2,3.965622E-2,-7.0835813E-3,-4.4793557E-2,1.237977E-2,-7.0612663E-3,4.6966266E-2,-8.914404E-2,-2.4565276E-2,-4.6868544E-2,2.3478406E-2,-4.1501027E-2,-5.244034E-3,-1.1326765E-1,3.9313868E-2,-2.2885665E-2],"split_indices":[0,0,0,1,1,1,1,0,0,0,2,1,1,1,2,1,1,1,2,2,2,2,1,0,0,2,2,2,0,0,2,0,0,0,0,0,0,0,0,0,0,0,0,0,0,0,0,0,0,0,0,0,0,0,0,0,0,0,0,0,0,0,0],"split_type":[0,0,0,0,0,0,0,0,0,0,0,0,0,0,0,0,0,0,0,0,0,0,0,0,0,0,0,0,0,0,0,0,0,0,0,0,0,0,0,0,0,0,0,0,0,0,0,0,0,0,0,0,0,0,0,0,0,0,0,0,0,0,0],"sum_hessian":[1.13958375E5,3.9503688E4,7.445469E4,2.8269932E4,1.1233757E4,2.2774473E4,5.1680215E4,2.3325926E4,4.944005E3,4.3458677E3,6.8878887E3,6.4160054E3,1.6358467E4,4.9763004E4,1.9172085E3,1.9299662E4,4.0262642E3,3.0013271E3,1.9426777E3,2.836589E3,1.5092786E3,2.4444368E3,4.4434517E3,2.7787592E2,6.1381294E3,1.474268E4,1.6157871E3,4.342019E4,6.342816E3,2.25952E2,1.6912566E3,7.094181E3,1.2205481E4,3.5038755E3,5.2238855E2,1.2560164E3,1.7453109E3,1.6656972E0,1.941012E3,3.0847173E0,2.8335044E3,1.456233E3,5.3045593E1,4.0568784E2,2.0387489E3,3.8338481E3,6.096036E2,3.0651934E1,2.47224E2,1.1465907E3,4.991539E3,3.997499E3,1.0745181E4,1.610273E3,5.5141034E0,2.4965242E3,4.0923664E4,1.7237517E3,4.619064E3,1.6972948E2,5.6222523E1,1.623208E3,6.804852E1],"tree_param":{"num_deleted":"0","num_feature":"5","num_nodes":"63","size_leaf_vector":"1"}},{"base_weights":[-1.099215E-3,1.1352025E0,-5.82429E-1,1.2839516E0,7.4182713E-1,-1.0192362E-1,-7.691954E-1,1.3210331E0,1.1073283E0,8.9259756E-1,4.9960846E-1,-7.757316E-1,7.9438545E-2,-8.228941E-1,5.8066845E-1,1.3440444E0,1.2088654E0,1.2405006E0,8.897058E-1,9.8227423E-1,5.40449E-1,8.2022E-1,3.3611357E-1,-1.0138248E0,-5.3987527E-1,2.8159022E-1,-3.073413E-1,5.139284E-1,-8.593725E-1,6.6912305E-1,-6.0276777E-1,6.590931E-2,6.796374E-2,6.0703974E-2,-8.1488505E-2,6.62794E-2,5.949827E-2,5.108879E-2,2.9592222E-2,5.6797195E-2,3.908439E-2,-8.7434845E-4,3.0987179E-2,5.5367257E-2,2.2028763E-2,-2.3093604E-2,1.793356E-2,1.8367391E-2,-5.5298563E-2,-1.5544659E-2,-4.653583E-2,9.502045E-3,4.969145E-2,-1.932397E-2,3.2153547E-2,3.638211E-2,9.432343E-3,-3.1504747E-2,-4.668216E-2,1.419413E-2,4.863303E-2,1.838222E-2,-7.953333E-2],"categories":[],"categories_nodes":[],"categories_segments":[],"categories_sizes":[],"default_left":[0,0,0,0,0,0,0,0,0,0,0,0,0,0,0,0,0,0,0,0,0,0,0,0,0,0,0,0,0,0,0,0,0,0,0,0,0,0,0,0,0,0,0,0,0,0,0,0,0,0,0,0,0,0,0,0,0,0,0,0,0,0,0],"id":22,"left_children":[1,3,5,7,9,11,13,15,17,19,21,23,25,27,29,31,33,35,37,39,41,43,45,47,49,51,53,55,57,59,61,-1,-1,-1,-1,-1,-1,-1,-1,-1,-1,-1,-1,-1,-1,-1,-1,-1,-1,-1,-1,-1,-1,-1,-1,-1,-1,-1,-1,-1,-1,-1,-1],"loss_changes":[7.392954E4,2.2154883E3,6.64442E3,1.7854688E2,3.7919434E2,2.5326714E3,3.865164E3,5.6992188E1,1.3728613E2,2.0176904E2,2.0890167E2,2.4627441E2,1.2769204E3,2.500957E3,2.1399408E2,5.625E0,5.934375E1,1.1148926E1,7.08468E1,1.5645605E2,5.7632874E1,1.4634387E2,4.7768982E1,2.7863647E2,1.9751068E2,6.991604E2,4.2188696E2,9.4591675E1,8.4940234E2,2.21781E2,1.3712593E2,0E0,0E0,0E0,0E0,0E0,0E0,0E0,0E0,0E0,0E0,0E0,0E0,0E0,0E0,0E0,0E0,0E0,0E0,0E0,0E0,0E0,0E0,0E0,0E0,0E0,0E0,0E0,0E0,0E0,0E0,0E0,0E0],"parents":[2147483647,0,0,1,1,2,2,3,3,4,4,5,5,6,6,7,7,8,8,9,9,10,10,11,11,12,12,13,13,14,14,15,15,16,16,17,17,18,18,19,19,20,20,21,21,22,22,23,23,24,24,25,25,26,26,27,27,28,28,29,29,30,30],"right_children":[2,4,6,8,10,12,14,16,18,20,22,24,26,28,30,32,34,36,38,40,42,44,46,48,50,52,54,56,58,60,62,-1,-1,-1,-1,-1,-1,-1,-1,-1,-1,-1,-1,-1,-1,-1,-1,-1,-1,-1,-1,-1,-1,-1,-1,-1,-1,-1,-1,-1,-1,-1,-1],"split_conditions":[-1.0276172E0,-1.5331744E0,-3.6395133E-1,9.869619E-1,1.2552279E-1,-4.945364E-1,1.9346485E0,-2.0728428E0,-2.7808962E0,-1.1328012E0,-4.8533553E-1,-8.3567166E-1,2.1713136E-1,-6.2663E0,1.4986327E0,-5.207183E-1,6.5486865E0,1.811741E0,1.6576408E-1,-1.14061914E-1,-6.2704164E-1,-1.27777E0,1.6126005E-1,-1.3254902E0,-5.5215037E-1,1.6303923E0,1.811741E0,-8.947239E0,-4.0441602E-2,-3.1903484E-1,-4.830542E-2,6.590931E-2,6.796374E-2,6.0703974E-2,-8.1488505E-2,6.62794E-2,5.949827E-2,5.108879E-2,2.9592222E-2,5.6797195E-2,3.908439E-2,-8.7434845E-4,3.0987179E-2,5.5367257E-2,2.2028763E-2,-2.3093604E-2,1.793356E-2,1.8367391E-2,-5.5298563E-2,-1.5544659E-2,-4.653583E-2,9.502045E-3,4.969145E-2,-1.932397E-2,3.2153547E-2,3.638211E-2,9.432343E-3,-3.1504747E-2,-4.668216E-2,1.419413E-2,4.863303E-2,1.838222E-2,-7.953333E-2],"split_indices":[0,0,0,1,3,1,1,0,0,0,1,1,3,3,3,1,3,1,3,1,1,0,3,1,0,1,1,3,0,3,0,0,0,0,0,0,0,0,0,0,0,0,0,0,0,0,0,0,0,0,0,0,0,0,0,0,0,0,0,0,0,0,0],"split_type":[0,0,0,0,0,0,0,0,0,0,0,0,0,0,0,0,0,0,0,0,0,0,0,0,0,0,0,0,0,0,0,0,0,0,0,0,0,0,0,0,0,0,0,0,0,0,0,0,0,0,0,0,0,0,0,0,0,0,0,0,0,0,0],"sum_hessian":[1.1191647E5,3.7877637E4,7.403883E4,2.7483059E4,1.0394577E4,2.0723566E4,5.331526E4,2.2708924E4,4.774135E3,6.4050396E3,3.989538E3,4.3943027E3,1.6329264E4,5.1275855E4,2.039408E3,1.8834104E4,3.8748193E3,2.958813E3,1.8153218E3,5.103591E3,1.3014484E3,1.3460107E3,2.6435276E3,2.18514E3,2.2091626E3,1.0724396E4,5.6048667E3,1.3616697E3,4.9914188E4,1.8979801E3,1.414278E2,7.013722E3,1.1820382E4,3.8682864E3,6.53307E0,1.0931016E3,1.8657114E3,1.2559918E3,5.5932996E2,2.8871082E3,2.216483E3,1.6204433E2,1.1394039E3,7.6529877E2,5.807119E2,7.213819E1,2.5713894E3,1.3647932E2,2.0486606E3,1.3941613E3,8.1500146E2,9.504039E3,1.2203579E3,5.1745874E3,4.3027948E2,8.210158E2,5.406539E2,1.2215084E4,3.76991E4,8.372736E2,1.0607065E3,7.166207E1,6.976573E1],"tree_param":{"num_deleted":"0","num_feature":"5","num_nodes":"63","size_leaf_vector":"1"}},{"base_weights":[1.3322777E-3,1.1080585E0,-5.5758804E-1,1.259143E0,7.16401E-1,-6.661783E-2,-7.079617E-1,1.295789E0,1.0990493E0,8.6856943E-1,4.7247913E-1,1.7500572E-1,-3.1360298E-1,5.4354E-1,-7.4457157E-1,1.3119303E0,1.2214024E0,1.1225204E0,5.6164706E-1,9.528179E-1,5.5387294E-1,4.8643684E-1,-1.04731135E-1,-3.9766923E-1,2.7586251E-1,5.0995827E-1,-3.4964934E-1,-1.6506666E-1,9.0613747E-1,-5.151373E-1,-8.5813034E-1,6.0571134E-2,6.568187E-2,6.249025E-2,1.748216E-2,-1.0917383E-2,5.633461E-2,-9.920192E-2,3.0552885E-2,2.7462695E-2,5.04277E-2,6.079814E-3,3.2450628E-2,3.356133E-2,1.7294576E-2,3.445829E-3,-3.233697E-2,3.0446336E-2,6.671472E-3,-8.485113E-2,3.3238743E-2,-7.7678724E-3,-2.1752214E-2,-5.3146966E-2,-1.579569E-3,5.561263E-2,2.0366376E-2,6.4984075E-4,-3.2881055E-2,-2.7107278E-2,-4.4673394E-2],"categories":[],"categories_nodes":[],"categories_segments":[],"categories_sizes":[],"default_left":[0,0,0,0,0,0,0,0,0,0,0,0,0,0,0,0,0,0,0,0,0,0,0,0,0,0,0,0,0,0,0,0,0,0,0,0,0,0,0,0,0,0,0,0,0,0,0,0,0,0,0,0,0,0,0,0,0,0,0,0,0],"id":23,"left_children":[1,3,5,7,9,11,13,15,17,19,21,23,25,27,29,31,33,35,37,39,41,43,-1,45,47,49,51,53,55,57,59,-1,-1,-1,-1,-1,-1,-1,-1,-1,-1,-1,-1,-1,-1,-1,-1,-1,-1,-1,-1,-1,-1,-1,-1,-1,-1,-1,-1,-1,-1],"loss_changes":[6.81256E4,2.185918E3,5.402576E3,1.5502344E2,3.8152246E2,1.0240463E3,2.56708E3,2.4445312E1,6.210742E1,1.674458E2,1.4274188E2,5.011139E2,2.520852E2,4.0938562E2,1.4176387E3,1.46875E0,9.569824E1,2.6898438E1,2.7644966E1,1.1182715E2,5.504416E1,1.0195868E2,0E0,1.510405E2,3.4982507E2,1.22846504E2,1.348277E2,6.467961E1,1.0788611E2,1.3562212E3,4.060332E2,0E0,0E0,0E0,0E0,0E0,0E0,0E0,0E0,0E0,0E0,0E0,0E0,0E0,0E0,0E0,0E0,0E0,0E0,0E0,0E0,0E0,0E0,0E0,0E0,0E0,0E0,0E0,0E0,0E0,0E0],"parents":[2147483647,0,0,1,1,2,2,3,3,4,4,5,5,6,6,7,7,8,8,9,9,10,10,11,11,12,12,13,13,14,14,15,15,16,16,17,17,18,18,19,19,20,20,21,21,23,23,24,24,25,25,26,26,27,27,28,28,29,29,30,30],"right_children":[2,4,6,8,10,12,14,16,18,20,22,24,26,28,30,32,34,36,38,40,42,44,-1,46,48,50,52,54,56,58,60,-1,-1,-1,-1,-1,-1,-1,-1,-1,-1,-1,-1,-1,-1,-1,-1,-1,-1,-1,-1,-1,-1,-1,-1,-1,-1,-1,-1,-1,-1],"split_conditions":[-1.0276172E0,-1.5331744E0,-4.4782853E-1,-2.0728428E0,1.2552279E-1,7.1313675E-3,-6.2663E0,-2.7808962E0,4.812788E0,-1.1328012E0,1.8819792E1,-4.208713E0,-1.0895143E0,-1.2702406E1,1.3863874E-2,-6.2663E0,4.9959784E0,-8.947239E0,-9.5633227E-1,-3.5916085E0,-1.2306166E0,-1.27777E0,-1.04731135E-1,-8.1909645E-1,-6.8766755E-1,-1.612964E1,-8.008054E-1,-9.311387E-3,-8.947239E0,-6.027614E-1,-2.8860857E0,6.0571134E-2,6.568187E-2,6.249025E-2,1.748216E-2,-1.0917383E-2,5.633461E-2,-9.920192E-2,3.0552885E-2,2.7462695E-2,5.04277E-2,6.079814E-3,3.2450628E-2,3.356133E-2,1.7294576E-2,3.445829E-3,-3.233697E-2,3.0446336E-2,6.671472E-3,-8.485113E-2,3.3238743E-2,-7.7678724E-3,-2.1752214E-2,-5.3146966E-2,-1.579569E-3,5.561263E-2,2.0366376E-2,6.4984075E-4,-3.2881055E-2,-2.7107278E-2,-4.4673394E-2],"split_indices":[0,0,0,0,3,3,3,0,3,0,2,3,2,2,0,3,3,3,2,3,3,0,0,0,3,2,0,0,3,3,3,0,0,0,0,0,0,0,0,0,0,0,0,0,0,0,0,0,0,0,0,0,0,0,0,0,0,0,0,0,0],"split_type":[0,0,0,0,0,0,0,0,0,0,0,0,0,0,0,0,0,0,0,0,0,0,0,0,0,0,0,0,0,0,0,0,0,0,0,0,0,0,0,0,0,0,0,0,0,0,0,0,0,0,0,0,0,0,0,0,0,0,0,0,0],"sum_hessian":[1.101317E5,3.69552E4,7.317651E4,2.6666281E4,1.0288919E4,1.7157773E4,5.601873E4,2.1693477E4,4.972806E3,6.3345845E3,3.9543342E3,8.673172E3,8.484602E3,1.5917361E3,5.4426996E4,1.7811818E4,3.8816584E3,4.763663E3,2.0914275E2,4.995259E3,1.3393257E3,3.9337563E3,2.0577887E1,1.2983077E3,7.3748643E3,3.5523788E2,8.129364E3,5.3897943E2,1.0527566E3,1.8021625E4,3.640537E4,3.0933228E2,1.7502484E4,3.7587617E3,1.2289679E2,1.4615586E1,4.7490474E3,3.2365882E0,2.0590616E2,6.0749225E2,4.3877666E3,2.4200943E2,1.0973163E3,1.6977585E3,2.2359978E3,4.5210248E2,8.4620526E2,2.2081262E3,5.166738E3,2.2632978E1,3.326049E2,2.4829456E3,5.646418E3,6.885258E1,4.7012683E2,7.440678E2,3.0868884E2,3.8291829E3,1.4192441E4,3.6634531E3,3.2741918E4],"tree_param":{"num_deleted":"0","num_feature":"5",